{"learner":{"attributes":{"scikit_learn":"{\"_estimator_type\": \"classifier\"}"},"feature_names":[],"feature_types":[],"gradient_booster":{"model":{"gbtree_model_param":{"num_parallel_tree":"1","num_trees":"200"},"iteration_indptr":[0,2,4,6,8,10,12,14,16,18,20,22,24,26,28,30,32,34,36,38,40,42,44,46,48,50,52,54,56,58,60,62,64,66,68,70,72,74,76,78,80,82,84,86,88,90,92,94,96,98,100,102,104,106,108,110,112,114,116,118,120,122,124,126,128,130,132,134,136,138,140,142,144,146,148,150,152,154,156,158,160,162,164,166,168,170,172,174,176,178,180,182,184,186,188,190,192,194,196,198,200],"tree_info":[0,1,0,1,0,1,0,1,0,1,0,1,0,1,0,1,0,1,0,1,0,1,0,1,0,1,0,1,0,1,0,1,0,1,0,1,0,1,0,1,0,1,0,1,0,1,0,1,0,1,0,1,0,1,0,1,0,1,0,1,0,1,0,1,0,1,0,1,0,1,0,1,0,1,0,1,0,1,0,1,0,1,0,1,0,1,0,1,0,1,0,1,0,1,0,1,0,1,0,1,0,1,0,1,0,1,0,1,0,1,0,1,0,1,0,1,0,1,0,1,0,1,0,1,0,1,0,1,0,1,0,1,0,1,0,1,0,1,0,1,0,1,0,1,0,1,0,1,0,1,0,1,0,1,0,1,0,1,0,1,0,1,0,1,0,1,0,1,0,1,0,1,0,1,0,1,0,1,0,1,0,1,0,1,0,1,0,1,0,1,0,1,0,1,0,1,0,1,0,1],"trees":[{"base_weights":[2.8169014E-2,6.1702126E-1,-2.5773194E-1,-4E-1,8.4615386E-1,-5.492958E-1,5E-1,1.5E-1,-2.2500001E-1,-1.5E-1,2.837838E-1,-7.3770493E-1,5E-1,2.7272728E-1,-2.2500001E-1,4E-1,-9.245283E-1,-1.5E-1,2.4000001E-1,-1.5E-1,2.2500001E-1,-2.882353E-1,-0E0],"categories":[],"categories_nodes":[],"categories_segments":[],"categories_sizes":[],"default_left":[0,0,0,0,0,0,0,0,0,0,0,0,0,0,0,0,0,0,0,0,0,0,0],"id":0,"left_children":[1,3,5,7,9,11,13,-1,-1,-1,-1,15,17,-1,-1,19,21,-1,-1,-1,-1,-1,-1],"loss_changes":[1.211212E1,5.8147297E0,1.0989618E1,1.95E0,3.092516E0,7.3870926E0,7.840909E0,0E0,0E0,0E0,0E0,6.852583E0,2.2E0,0E0,0E0,1.95E0,8.8827133E-1,0E0,0E0,0E0,0E0,0E0,0E0],"parents":[2147483647,0,0,1,1,2,2,3,3,4,4,5,5,6,6,11,11,12,12,15,15,16,16],"right_children":[2,4,6,8,10,12,14,-1,-1,-1,-1,16,18,-1,-1,20,22,-1,-1,-1,-1,-1,-1],"split_conditions":[4.253845E-2,7.1227285E-3,6.172715E-2,5.6794852E-2,8.8743836E-2,5.8636763E-3,1.9179743E-2,1.5E-1,-2.2500001E-1,-1.5E-1,2.837838E-1,8.1080996E-2,8.348566E-2,2.7272728E-1,-2.2500001E-1,4.328231E-2,6.3658625E-2,-1.5E-1,2.4000001E-1,-1.5E-1,2.2500001E-1,-2.882353E-1,-0E0],"split_indices":[21714,43175,2377,16,814,3292,11622,0,0,0,0,12257,20,0,0,1,0,0,0,0,0,0,0],"split_type":[0,0,0,0,0,0,0,0,0,0,0,0,0,0,0,0,0,0,0,0,0,0,0],"sum_hessian":[7E1,2.25E1,4.75E1,4E0,1.85E1,3.45E1,1.3E1,1E0,3E0,1E0,1.75E1,2.95E1,5E0,1E1,3E0,4E0,2.55E1,1E0,4E0,1E0,3E0,2.45E1,1E0],"tree_param":{"num_deleted":"0","num_feature":"50176","num_nodes":"23","size_leaf_vector":"1"}},{"base_weights":[-2.8169014E-2,-6.1702126E-1,2.5773194E-1,4E-1,-8.4615386E-1,5.492958E-1,-5E-1,-1.5E-1,2.2500001E-1,1.5E-1,-2.837838E-1,7.3770493E-1,-5E-1,-2.7272728E-1,2.2500001E-1,-4E-1,9.245283E-1,1.5E-1,-2.4000001E-1,1.5E-1,-2.2500001E-1,2.882353E-1,-0E0],"categories":[],"categories_nodes":[],"categories_segments":[],"categories_sizes":[],"default_left":[0,0,0,0,0,0,0,0,0,0,0,0,0,0,0,0,0,0,0,0,0,0,0],"id":1,"left_children":[1,3,5,7,9,11,13,-1,-1,-1,-1,15,17,-1,-1,19,21,-1,-1,-1,-1,-1,-1],"loss_changes":[1.211212E1,5.8147297E0,1.0989618E1,1.95E0,3.092516E0,7.3870926E0,7.840909E0,0E0,0E0,0E0,0E0,6.852583E0,2.2E0,0E0,0E0,1.95E0,8.8827133E-1,0E0,0E0,0E0,0E0,0E0,0E0],"parents":[2147483647,0,0,1,1,2,2,3,3,4,4,5,5,6,6,11,11,12,12,15,15,16,16],"right_children":[2,4,6,8,10,12,14,-1,-1,-1,-1,16,18,-1,-1,20,22,-1,-1,-1,-1,-1,-1],"split_conditions":[4.253845E-2,7.1227285E-3,6.172715E-2,5.6794852E-2,8.8743836E-2,5.8636763E-3,1.9179743E-2,-1.5E-1,2.2500001E-1,1.5E-1,-2.837838E-1,8.1080996E-2,8.348566E-2,-2.7272728E-1,2.2500001E-1,4.328231E-2,6.3658625E-2,1.5E-1,-2.4000001E-1,1.5E-1,-2.2500001E-1,2.882353E-1,-0E0],"split_indices":[21714,43175,2377,16,814,3292,11622,0,0,0,0,12257,20,0,0,1,0,0,0,0,0,0,0],"split_type":[0,0,0,0,0,0,0,0,0,0,0,0,0,0,0,0,0,0,0,0,0,0,0],"sum_hessian":[7E1,2.25E1,4.75E1,4E0,1.85E1,3.45E1,1.3E1,1E0,3E0,1E0,1.75E1,2.95E1,5E0,1E1,3E0,4E0,2.55E1,1E0,4E0,1E0,3E0,2.45E1,1E0],"tree_param":{"num_deleted":"0","num_feature":"50176","num_nodes":"23","size_leaf_vector":"1"}},{"base_weights":[2.1024952E-2,3.4476748E-1,-3.1171063E-1,-9.805088E-2,7.136061E-1,-5.028017E-1,4.6883795E-1,5.1356417E-1,-6.084326E-1,2.2488806E-1,4.5781706E-2,-6.469647E-1,4.2985117E-1,1.9601102E-1,-4.8454333E-2,2.0260713E-1,-4.50283E-2,-2.0686652E-1,-2.7194764E-2,-7.367779E-1,1.3942839E-1,4.5781706E-2,1.532659E-1,-2.3052226E-1,-4.4331897E-2],"categories":[],"categories_nodes":[],"categories_segments":[],"categories_sizes":[],"default_left":[0,0,0,0,0,0,0,0,0,0,0,0,0,0,0,0,0,0,0,0,0,0,0,0,0],"id":2,"left_children":[1,3,5,7,9,11,13,15,17,-1,-1,19,21,-1,-1,-1,-1,-1,-1,23,-1,-1,-1,-1,-1],"loss_changes":[7.2467217E0,5.634016E0,5.189055E0,5.419349E0,2.6361847E-1,3.9299235E0,9.2542994E-1,9.586737E-1,3.3131003E-1,0E0,0E0,2.7311172E0,1.7227292E-2,0E0,0E0,0E0,0E0,0E0,0E0,3.0603313E-1,0E0,0E0,0E0,0E0,0E0],"parents":[2147483647,0,0,1,1,2,2,3,3,4,4,5,5,6,6,7,7,8,8,11,11,12,12,19,19],"right_children":[2,4,6,8,10,12,14,16,18,-1,-1,20,22,-1,-1,-1,-1,-1,-1,24,-1,-1,-1,-1,-1],"split_conditions":[7.764577E-2,6.1364103E-2,2.1571912E-2,6.596826E-2,2.843755E-2,1.098121E-1,6.9259256E-2,1.5727146E-2,6.0246255E-2,2.2488806E-1,4.5781706E-2,1.0556224E-1,5.8011465E-2,1.9601102E-1,-4.8454333E-2,2.0260713E-1,-4.50283E-2,-2.0686652E-1,-2.7194764E-2,1.6461158E-1,1.3942839E-1,4.5781706E-2,1.532659E-1,-2.3052226E-1,-4.4331897E-2],"split_indices":[44783,32154,21680,23014,27,743,182,469,0,0,0,3426,0,0,0,0,0,0,0,30,0,0,0,0,0],"split_type":[0,0,0,0,0,0,0,0,0,0,0,0,0,0,0,0,0,0,0,0,0,0,0,0,0],"sum_hessian":[6.527563E1,3.306659E1,3.2209038E1,1.5359965E1,1.7706623E1,2.6160383E1,6.0486546E0,6.9842114E0,8.375753E0,1.6322365E1,1.3842583E0,2.2923365E1,3.2370176E0,4.650679E0,1.3979756E0,5.6010966E0,1.3831148E0,6.954439E0,1.4213142E0,2.1521936E1,1.4014293E0,1.3842583E0,1.8527596E0,2.0136044E1,1.3858935E0],"tree_param":{"num_deleted":"0","num_feature":"50176","num_nodes":"25","size_leaf_vector":"1"}},{"base_weights":[-2.102502E-2,-3.4476754E-1,3.1171057E-1,9.805081E-2,-7.136062E-1,5.0280166E-1,-4.68838E-1,-5.135642E-1,6.0843253E-1,-2.2488807E-1,-4.5781724E-2,6.4696467E-1,-4.2985123E-1,-1.9601104E-1,4.8454314E-2,-2.0260714E-1,4.5028284E-2,2.068665E-1,2.7194757E-2,7.3677784E-1,-1.3942839E-1,-4.5781724E-2,-1.532659E-1,2.3052225E-1,4.4331886E-2],"categories":[],"categories_nodes":[],"categories_segments":[],"categories_sizes":[],"default_left":[0,0,0,0,0,0,0,0,0,0,0,0,0,0,0,0,0,0,0,0,0,0,0,0,0],"id":3,"left_children":[1,3,5,7,9,11,13,15,17,-1,-1,19,21,-1,-1,-1,-1,-1,-1,23,-1,-1,-1,-1,-1],"loss_changes":[7.2467213E0,5.6340146E0,5.1890554E0,5.419349E0,2.6361942E-1,3.929923E0,9.254298E-1,9.5867395E-1,3.3131003E-1,0E0,0E0,2.7311163E0,1.7227173E-2,0E0,0E0,0E0,0E0,0E0,0E0,3.060341E-1,0E0,0E0,0E0,0E0,0E0],"parents":[2147483647,0,0,1,1,2,2,3,3,4,4,5,5,6,6,7,7,8,8,11,11,12,12,19,19],"right_children":[2,4,6,8,10,12,14,16,18,-1,-1,20,22,-1,-1,-1,-1,-1,-1,24,-1,-1,-1,-1,-1],"split_conditions":[7.764577E-2,6.1364103E-2,2.1571912E-2,6.596826E-2,2.843755E-2,1.098121E-1,6.9259256E-2,1.5727146E-2,6.0246255E-2,-2.2488807E-1,-4.5781724E-2,1.0556224E-1,5.8011465E-2,-1.9601104E-1,4.8454314E-2,-2.0260714E-1,4.5028284E-2,2.068665E-1,2.7194757E-2,1.6461158E-1,-1.3942839E-1,-4.5781724E-2,-1.532659E-1,2.3052225E-1,4.4331886E-2],"split_indices":[44783,32154,21680,23014,27,743,182,469,0,0,0,3426,0,0,0,0,0,0,0,30,0,0,0,0,0],"split_type":[0,0,0,0,0,0,0,0,0,0,0,0,0,0,0,0,0,0,0,0,0,0,0,0,0],"sum_hessian":[6.527563E1,3.306659E1,3.2209038E1,1.5359965E1,1.7706623E1,2.6160383E1,6.0486546E0,6.9842114E0,8.375753E0,1.6322365E1,1.3842583E0,2.2923365E1,3.2370179E0,4.650679E0,1.3979756E0,5.6010966E0,1.3831148E0,6.954439E0,1.4213142E0,2.1521936E1,1.4014293E0,1.3842583E0,1.8527596E0,2.0136042E1,1.3858935E0],"tree_param":{"num_deleted":"0","num_feature":"50176","num_nodes":"25","size_leaf_vector":"1"}},{"base_weights":[2.3532033E-2,-2.1471052E-1,3.7299308E-1,-3.7553555E-1,5.238069E-1,5.424246E-1,-4.321961E-1,4.539245E-1,-5.254414E-1,3.837098E-2,1.75378E-1,-2.9863992E-1,2.0216933E-1,-2.7778048E-2,-1.5674548E-1,1.5729812E-1,3.5890143E-2,1.2743355E-1,-6.0681665E-1,-1.14422016E-1,-2.4615016E-2,3.0244714E-2,-2.0267579E-1],"categories":[],"categories_nodes":[],"categories_segments":[],"categories_sizes":[],"default_left":[0,0,0,0,0,0,0,0,0,0,0,0,0,0,0,0,0,0,0,0,0,0,0],"id":4,"left_children":[1,3,5,7,9,11,13,15,17,-1,-1,19,-1,-1,-1,-1,-1,-1,21,-1,-1,-1,-1],"loss_changes":[4.926047E0,4.382797E0,3.5032306E0,3.909615E0,8.6954E-2,2.43918E0,9.640652E-2,5.6257248E-2,2.2271242E0,0E0,0E0,3.0173361E-2,0E0,0E0,0E0,0E0,0E0,0E0,1.2297802E0,0E0,0E0,0E0,0E0],"parents":[2147483647,0,0,1,1,2,2,3,3,4,4,5,5,6,6,7,7,8,8,11,11,18,18],"right_children":[2,4,6,8,10,12,14,16,18,-1,-1,20,-1,-1,-1,-1,-1,-1,22,-1,-1,-1,-1],"split_conditions":[2.175749E-2,5.0201498E-2,1.2645192E-1,3.3002805E-2,1.0882828E-3,5.288829E-2,2.0561442E-3,2.9790394E-2,3.082335E-2,3.837098E-2,1.75378E-1,5.293019E-2,2.0216933E-1,-2.7778048E-2,-1.5674548E-1,1.5729812E-1,3.5890143E-2,1.2743355E-1,4.3329347E-2,-1.14422016E-1,-2.4615016E-2,3.0244714E-2,-2.0267579E-1],"split_indices":[40168,2453,18264,22340,3,10501,3,37,37956,0,0,1,0,0,0,0,0,0,26227,0,0,0,0],"split_type":[0,0,0,0,0,0,0,0,0,0,0,0,0,0,0,0,0,0,0,0,0,0,0],"sum_hessian":[5.7205204E1,3.4244713E1,2.2960491E1,2.8524506E1,5.7202063E0,1.9238565E1,3.7219267E0,4.055657E0,2.446885E1,1.1745387E0,4.5456676E0,2.4288905E0,1.6809675E1,1.2071201E0,2.5148065E0,2.8805327E0,1.1751243E0,1.5972881E0,2.2871561E1,1.2067755E0,1.222115E0,1.9845583E0,2.0887003E1],"tree_param":{"num_deleted":"0","num_feature":"50176","num_nodes":"23","size_leaf_vector":"1"}},{"base_weights":[-2.353203E-2,2.1471053E-1,-3.7299308E-1,3.7553555E-1,-5.238069E-1,-5.424246E-1,4.321961E-1,-4.539245E-1,5.254414E-1,-3.8370974E-2,-1.75378E-1,2.9863995E-1,-2.0216933E-1,2.7778057E-2,1.5674548E-1,-1.5729812E-1,-3.589015E-2,-1.2743354E-1,6.0681665E-1,1.1442203E-1,2.461502E-2,-3.0244716E-2,2.0267579E-1],"categories":[],"categories_nodes":[],"categories_segments":[],"categories_sizes":[],"default_left":[0,0,0,0,0,0,0,0,0,0,0,0,0,0,0,0,0,0,0,0,0,0,0],"id":5,"left_children":[1,3,5,7,9,11,13,15,17,-1,-1,19,-1,-1,-1,-1,-1,-1,21,-1,-1,-1,-1],"loss_changes":[4.926047E0,4.382796E0,3.50323E0,3.9096155E0,8.695412E-2,2.4391804E0,9.640646E-2,5.6257248E-2,2.2271247E0,0E0,0E0,3.0173361E-2,0E0,0E0,0E0,0E0,0E0,0E0,1.2297812E0,0E0,0E0,0E0,0E0],"parents":[2147483647,0,0,1,1,2,2,3,3,4,4,5,5,6,6,7,7,8,8,11,11,18,18],"right_children":[2,4,6,8,10,12,14,16,18,-1,-1,20,-1,-1,-1,-1,-1,-1,22,-1,-1,-1,-1],"split_conditions":[2.175749E-2,5.0201498E-2,1.2645192E-1,3.3002805E-2,1.0882828E-3,5.288829E-2,2.0561442E-3,2.9790394E-2,3.082335E-2,-3.8370974E-2,-1.75378E-1,5.293019E-2,-2.0216933E-1,2.7778057E-2,1.5674548E-1,-1.5729812E-1,-3.589015E-2,-1.2743354E-1,4.3329347E-2,1.1442203E-1,2.461502E-2,-3.0244716E-2,2.0267579E-1],"split_indices":[40168,2453,18264,22340,3,10501,3,37,37956,0,0,1,0,0,0,0,0,0,26227,0,0,0,0],"split_type":[0,0,0,0,0,0,0,0,0,0,0,0,0,0,0,0,0,0,0,0,0,0,0],"sum_hessian":[5.7205204E1,3.4244713E1,2.2960491E1,2.8524506E1,5.7202063E0,1.9238565E1,3.7219265E0,4.055657E0,2.446885E1,1.1745386E0,4.5456676E0,2.4288907E0,1.6809675E1,1.2071201E0,2.5148063E0,2.8805325E0,1.1751242E0,1.5972881E0,2.2871561E1,1.2067755E0,1.222115E0,1.9845582E0,2.0887001E1],"tree_param":{"num_deleted":"0","num_feature":"50176","num_nodes":"23","size_leaf_vector":"1"}},{"base_weights":[2.4009036E-2,3.8609263E-1,-1.5257902E-1,5.3794885E-1,-2.4965167E-1,-3.363125E-1,3.240661E-1,-3.1537723E-2,1.7911851E-1,-1.2885527E-1,3.6880072E-2,2.3397207E-1,-5.043207E-1,1.7020625E-1,-1.2764807E-1,-1.1950067E-1,1.6236249E-1,1.1156205E-1,-5.9050417E-1,-1.8402408E-1,-2.9519299E-2],"categories":[],"categories_nodes":[],"categories_segments":[],"categories_sizes":[],"default_left":[0,0,0,0,0,0,0,0,0,0,0,0,0,0,0,0,0,0,0,0,0],"id":6,"left_children":[1,3,5,7,9,11,13,-1,-1,-1,-1,15,17,-1,-1,-1,-1,-1,19,-1,-1],"loss_changes":[3.2313626E0,1.7319257E0,3.092499E0,5.8260155E-1,3.1240135E-1,2.5209782E0,2.062765E0,0E0,0E0,0E0,0E0,1.4570279E0,1.7064271E0,0E0,0E0,0E0,0E0,0E0,1.4609814E-1,0E0,0E0],"parents":[2147483647,0,0,1,1,2,2,3,3,4,4,5,5,6,6,11,11,12,12,18,18],"right_children":[2,4,6,8,10,12,14,-1,-1,-1,-1,16,18,-1,-1,-1,-1,-1,20,-1,-1],"split_conditions":[4.253845E-2,6.945046E-2,6.172715E-2,1.3271025E-1,2.6991488E-3,1.3346481E-3,1.9179743E-2,-3.1537723E-2,1.7911851E-1,-1.2885527E-1,3.6880072E-2,3.0343095E-3,6.6104695E-2,1.7020625E-1,-1.2764807E-1,-1.1950067E-1,1.6236249E-1,1.1156205E-1,1.16079375E-2,-1.8402408E-1,-2.9519299E-2],"split_indices":[21714,46982,2377,3833,3,8907,11622,0,0,0,0,1730,3122,0,0,0,0,0,176,0,0],"split_type":[0,0,0,0,0,0,0,0,0,0,0,0,0,0,0,0,0,0,0,0,0],"sum_hessian":[4.861637E1,1.5548554E1,3.3067814E1,1.2674828E1,2.8737268E0,2.4080044E1,8.987772E0,1.0014887E0,1.167334E1,1.8350508E0,1.0386759E0,5.3903823E0,1.8689661E1,6.96892E0,2.0188515E0,1.6657245E0,3.7246578E0,1.3768506E0,1.731281E1,1.6307146E1,1.0056641E0],"tree_param":{"num_deleted":"0","num_feature":"50176","num_nodes":"21","size_leaf_vector":"1"}},{"base_weights":[-2.4009034E-2,-3.8609263E-1,1.5257901E-1,-5.379488E-1,2.4965167E-1,3.3631247E-1,-3.2406607E-1,3.1537727E-2,-1.7911851E-1,1.2885527E-1,-3.6880065E-2,-2.339721E-1,5.043207E-1,-1.7020625E-1,1.2764809E-1,1.1950067E-1,-1.6236249E-1,-1.11562066E-1,5.9050417E-1,1.8402408E-1,2.9519295E-2],"categories":[],"categories_nodes":[],"categories_segments":[],"categories_sizes":[],"default_left":[0,0,0,0,0,0,0,0,0,0,0,0,0,0,0,0,0,0,0,0,0],"id":7,"left_children":[1,3,5,7,9,11,13,-1,-1,-1,-1,15,17,-1,-1,-1,-1,-1,19,-1,-1],"loss_changes":[3.2313623E0,1.7319252E0,3.0924988E0,5.826011E-1,3.124013E-1,2.5209777E0,2.0627651E0,0E0,0E0,0E0,0E0,1.4570279E0,1.7064285E0,0E0,0E0,0E0,0E0,0E0,1.4609718E-1,0E0,0E0],"parents":[2147483647,0,0,1,1,2,2,3,3,4,4,5,5,6,6,11,11,12,12,18,18],"right_children":[2,4,6,8,10,12,14,-1,-1,-1,-1,16,18,-1,-1,-1,-1,-1,20,-1,-1],"split_conditions":[4.253845E-2,6.945046E-2,6.172715E-2,1.3271025E-1,2.6991488E-3,1.3346481E-3,1.9179743E-2,3.1537727E-2,-1.7911851E-1,1.2885527E-1,-3.6880065E-2,3.0343095E-3,6.6104695E-2,-1.7020625E-1,1.2764809E-1,1.1950067E-1,-1.6236249E-1,-1.11562066E-1,1.16079375E-2,1.8402408E-1,2.9519295E-2],"split_indices":[21714,46982,2377,3833,3,8907,11622,0,0,0,0,1730,3122,0,0,0,0,0,176,0,0],"split_type":[0,0,0,0,0,0,0,0,0,0,0,0,0,0,0,0,0,0,0,0,0],"sum_hessian":[4.861637E1,1.5548554E1,3.3067814E1,1.2674828E1,2.8737266E0,2.4080044E1,8.987772E0,1.0014887E0,1.1673339E1,1.8350507E0,1.038676E0,5.3903823E0,1.8689661E1,6.96892E0,2.0188518E0,1.6657244E0,3.7246578E0,1.3768508E0,1.7312809E1,1.6307146E1,1.0056641E0],"tree_param":{"num_deleted":"0","num_feature":"50176","num_nodes":"21","size_leaf_vector":"1"}},{"base_weights":[2.1750802E-2,-2.4356055E-1,2.2549051E-1,1.2648527E-1,-4.5065936E-1,4.369104E-1,-1.6232467E-1,-1.6747767E-1,6.623698E-2,-9.813603E-2,5.199965E-1,2.6776445E-1,-1.508435E-1,-2.4087837E-2,1.7114246E-1,1.335644E-1,-5.132745E-2],"categories":[],"categories_nodes":[],"categories_segments":[],"categories_sizes":[],"default_left":[0,0,0,0,0,0,0,0,0,0,0,0,0,0,0,0,0],"id":8,"left_children":[1,3,5,-1,7,9,11,-1,-1,-1,13,15,-1,-1,-1,-1,-1],"loss_changes":[2.2859402E0,2.725924E0,2.0276566E0,0E0,1.1723864E0,1.1677542E0,1.4744234E0,0E0,0E0,0E0,4.8701525E-1,4.4180563E-1,0E0,0E0,0E0,0E0,0E0],"parents":[2147483647,0,0,1,1,2,2,4,4,5,5,6,6,10,10,11,11],"right_children":[2,4,6,-1,8,10,12,-1,-1,-1,14,16,-1,-1,-1,-1,-1],"split_conditions":[1.7225873E-2,4.5723986E-2,3.8371447E-2,1.2648527E-1,3.4756135E-2,8.307917E-2,1.05935425E-1,-1.6747767E-1,6.623698E-2,-9.813603E-2,3.3838864E-2,3.4411114E-2,-1.508435E-1,-2.4087837E-2,1.7114246E-1,1.335644E-1,-5.132745E-2],"split_indices":[43498,6194,10307,0,2893,12687,20009,0,0,0,5158,3554,0,0,0,0,0],"split_type":[0,0,0,0,0,0,0,0,0,0,0,0,0,0,0,0,0],"sum_hessian":[4.0273556E1,1.7408556E1,2.2865E1,3.8872657E0,1.352129E1,1.4715926E1,8.149074E0,1.1799069E1,1.7222205E0,1.1552787E0,1.3560647E1,3.6951265E0,4.4539466E0,1.0060489E0,1.2554599E1,2.6208885E0,1.0742381E0],"tree_param":{"num_deleted":"0","num_feature":"50176","num_nodes":"17","size_leaf_vector":"1"}},{"base_weights":[-2.1750813E-2,2.4356055E-1,-2.2549053E-1,-1.2648527E-1,4.5065936E-1,-4.369104E-1,1.6232465E-1,1.6747767E-1,-6.623699E-2,9.813602E-2,-5.199965E-1,-2.6776445E-1,1.5084353E-1,2.408784E-2,-1.7114246E-1,-1.335644E-1,5.1327437E-2],"categories":[],"categories_nodes":[],"categories_segments":[],"categories_sizes":[],"default_left":[0,0,0,0,0,0,0,0,0,0,0,0,0,0,0,0,0],"id":9,"left_children":[1,3,5,-1,7,9,11,-1,-1,-1,13,15,-1,-1,-1,-1,-1],"loss_changes":[2.2859406E0,2.7259245E0,2.0276566E0,0E0,1.1723866E0,1.1677532E0,1.4744234E0,0E0,0E0,0E0,4.8701572E-1,4.418057E-1,0E0,0E0,0E0,0E0,0E0],"parents":[2147483647,0,0,1,1,2,2,4,4,5,5,6,6,10,10,11,11],"right_children":[2,4,6,-1,8,10,12,-1,-1,-1,14,16,-1,-1,-1,-1,-1],"split_conditions":[1.7225873E-2,4.5723986E-2,3.8371447E-2,-1.2648527E-1,3.4756135E-2,8.307917E-2,1.05935425E-1,1.6747767E-1,-6.623699E-2,9.813602E-2,3.3838864E-2,3.4411114E-2,1.5084353E-1,2.408784E-2,-1.7114246E-1,-1.335644E-1,5.1327437E-2],"split_indices":[43498,6194,10307,0,2893,12687,20009,0,0,0,5158,3554,0,0,0,0,0],"split_type":[0,0,0,0,0,0,0,0,0,0,0,0,0,0,0,0,0],"sum_hessian":[4.0273556E1,1.7408556E1,2.2865E1,3.8872662E0,1.3521291E1,1.4715926E1,8.149074E0,1.179907E1,1.7222204E0,1.1552786E0,1.3560648E1,3.6951268E0,4.4539466E0,1.0060489E0,1.2554599E1,2.6208885E0,1.0742383E0],"tree_param":{"num_deleted":"0","num_feature":"50176","num_nodes":"17","size_leaf_vector":"1"}},{"base_weights":[1.891105E-2,2.3898698E-1,-2.0244014E-1,-2.605448E-1,3.7611678E-1,2.5954205E-1,-3.5789222E-1,-1.2242169E-1,3.406918E-2,1.5338863E-1,-1.02860995E-1,-6.083409E-2,1.3437152E-1,-5.0235796E-1,2.4363458E-1,-1.122149E-1,9.161332E-2,-3.4636393E-2,-1.5922369E-1,9.557835E-2,1.4561324E-2],"categories":[],"categories_nodes":[],"categories_segments":[],"categories_sizes":[],"default_left":[0,0,0,0,0,0,0,0,0,0,0,0,0,0,0,0,0,0,0,0,0],"id":10,"left_children":[1,3,5,7,9,11,13,-1,-1,-1,15,-1,-1,17,19,-1,-1,-1,-1,-1,-1],"loss_changes":[1.7126086E0,1.3028914E0,1.3549582E0,2.8804475E-1,9.726677E-1,5.266124E-1,1.3015784E0,0E0,0E0,0E0,5.526639E-1,0E0,0E0,6.2485695E-2,3.2814503E-2,0E0,0E0,0E0,0E0,0E0,0E0],"parents":[2147483647,0,0,1,1,2,2,3,3,4,4,5,5,6,6,10,10,13,13,14,14],"right_children":[2,4,6,8,10,12,14,-1,-1,-1,16,-1,-1,18,20,-1,-1,-1,-1,-1,-1],"split_conditions":[7.764577E-2,4.795624E-2,3.6163285E-2,3.2867808E-2,3.2182466E-2,9.334335E-3,1.3063516E-1,-1.2242169E-1,3.406918E-2,1.5338863E-1,4.207886E-2,-6.083409E-2,1.3437152E-1,1.7803604E-2,3.0088846E-2,-1.122149E-1,9.161332E-2,-3.4636393E-2,-1.5922369E-1,9.557835E-2,1.4561324E-2],"split_indices":[44783,44328,49213,7129,42468,322,2445,0,0,0,2762,0,0,2305,1637,0,0,0,0,0,0],"split_type":[0,0,0,0,0,0,0,0,0,0,0,0,0,0,0,0,0,0,0,0,0],"sum_hessian":[3.316319E1,1.6589546E1,1.6573643E1,3.3793561E0,1.3210191E1,4.0041785E0,1.2569465E1,2.3585076E0,1.0208485E0,1.0249947E1,2.9602442E0,1.1369888E0,2.86719E0,1.0268251E1,2.3012135E0,1.829004E0,1.1312402E0,1.0482628E0,9.219988E0,1.2051611E0,1.0960525E0],"tree_param":{"num_deleted":"0","num_feature":"50176","num_nodes":"21","size_leaf_vector":"1"}},{"base_weights":[-1.891104E-2,-2.3898695E-1,2.0244016E-1,2.605448E-1,-3.7611675E-1,-2.5954202E-1,3.5789222E-1,1.22421704E-1,-3.4069188E-2,-1.5338863E-1,1.02861054E-1,6.0834095E-2,-1.3437152E-1,5.0235796E-1,-2.4363458E-1,1.12214915E-1,-9.161332E-2,3.46364E-2,1.5922369E-1,-9.557835E-2,-1.4561321E-2],"categories":[],"categories_nodes":[],"categories_segments":[],"categories_sizes":[],"default_left":[0,0,0,0,0,0,0,0,0,0,0,0,0,0,0,0,0,0,0,0,0],"id":11,"left_children":[1,3,5,7,9,11,13,-1,-1,-1,15,-1,-1,17,19,-1,-1,-1,-1,-1,-1],"loss_changes":[1.7126085E0,1.3028916E0,1.354958E0,2.8804493E-1,9.726677E-1,5.266124E-1,1.3015783E0,0E0,0E0,0E0,5.526641E-1,0E0,0E0,6.2485695E-2,3.2814518E-2,0E0,0E0,0E0,0E0,0E0,0E0],"parents":[2147483647,0,0,1,1,2,2,3,3,4,4,5,5,6,6,10,10,13,13,14,14],"right_children":[2,4,6,8,10,12,14,-1,-1,-1,16,-1,-1,18,20,-1,-1,-1,-1,-1,-1],"split_conditions":[7.764577E-2,4.795624E-2,3.6163285E-2,3.2867808E-2,3.2182466E-2,9.334335E-3,1.3063516E-1,1.22421704E-1,-3.4069188E-2,-1.5338863E-1,4.207886E-2,6.0834095E-2,-1.3437152E-1,1.7803604E-2,3.0088846E-2,1.12214915E-1,-9.161332E-2,3.46364E-2,1.5922369E-1,-9.557835E-2,-1.4561321E-2],"split_indices":[44783,44328,49213,7129,42468,322,2445,0,0,0,2762,0,0,2305,1637,0,0,0,0,0,0],"split_type":[0,0,0,0,0,0,0,0,0,0,0,0,0,0,0,0,0,0,0,0,0],"sum_hessian":[3.3163193E1,1.6589548E1,1.6573643E1,3.3793566E0,1.3210191E1,4.0041785E0,1.2569465E1,2.358508E0,1.0208486E0,1.0249947E1,2.9602447E0,1.1369888E0,2.86719E0,1.0268251E1,2.3012135E0,1.8290044E0,1.1312402E0,1.0482631E0,9.219988E0,1.205161E0,1.0960526E0],"tree_param":{"num_deleted":"0","num_feature":"50176","num_nodes":"21","size_leaf_vector":"1"}},{"base_weights":[1.722037E-2,-1.2546404E-1,3.1472832E-1,1.0910619E-1,-3.9281568E-1,1.4071287E-1,-8.094266E-2,-2.653325E-1,3.7026402E-1,2.9686134E-2,-1.4815368E-1,6.54607E-2,-1.3046348E-1,1.4124712E-1,-2.7808532E-2],"categories":[],"categories_nodes":[],"categories_segments":[],"categories_sizes":[],"default_left":[0,0,0,0,0,0,0,0,0,0,0,0,0,0,0],"id":12,"left_children":[1,3,5,7,9,-1,-1,11,13,-1,-1,-1,-1,-1,-1],"loss_changes":[1.2544346E0,1.3007903E0,9.8908824E-1,1.2195706E0,5.254142E-1,0E0,0E0,5.28914E-1,3.7757325E-1,0E0,0E0,0E0,0E0,0E0,0E0],"parents":[2147483647,0,0,1,1,2,2,3,3,4,4,7,7,8,8],"right_children":[2,4,6,8,10,-1,-1,12,14,-1,-1,-1,-1,-1,-1],"split_conditions":[3.432194E-2,5.5599473E-2,1.9832627E-1,5.3292003E-2,1.6761206E-2,1.4071287E-1,-8.094266E-2,8.673425E-2,1.00504905E-2,2.9686134E-2,-1.4815368E-1,6.54607E-2,-1.3046348E-1,1.4124712E-1,-2.7808532E-2],"split_indices":[32900,25721,14505,10501,32744,0,0,18731,38345,0,0,0,0,0,0],"split_type":[0,0,0,0,0,0,0,0,0,0,0,0,0,0,0],"sum_hessian":[2.7620844E1,1.9058632E1,8.562211E0,1.0466972E1,8.5916605E0,6.930247E0,1.6319644E0,4.294166E0,6.172806E0,1.467766E0,7.1238947E0,1.0403023E0,3.253864E0,5.057315E0,1.115491E0],"tree_param":{"num_deleted":"0","num_feature":"50176","num_nodes":"15","size_leaf_vector":"1"}},{"base_weights":[-1.7220363E-2,1.2546407E-1,-3.1472832E-1,-1.0910615E-1,3.9281568E-1,-1.4071287E-1,8.094266E-2,2.6533246E-1,-3.7026396E-1,-2.9686123E-2,1.4815368E-1,-6.546069E-2,1.3046348E-1,-1.4124712E-1,2.7808554E-2],"categories":[],"categories_nodes":[],"categories_segments":[],"categories_sizes":[],"default_left":[0,0,0,0,0,0,0,0,0,0,0,0,0,0,0],"id":13,"left_children":[1,3,5,7,9,-1,-1,11,13,-1,-1,-1,-1,-1,-1],"loss_changes":[1.2544348E0,1.3007901E0,9.890883E-1,1.2195705E0,5.254142E-1,0E0,0E0,5.2891386E-1,3.7757355E-1,0E0,0E0,0E0,0E0,0E0,0E0],"parents":[2147483647,0,0,1,1,2,2,3,3,4,4,7,7,8,8],"right_children":[2,4,6,8,10,-1,-1,12,14,-1,-1,-1,-1,-1,-1],"split_conditions":[3.432194E-2,5.5599473E-2,1.9832627E-1,5.3292003E-2,1.6761206E-2,-1.4071287E-1,8.094266E-2,8.673425E-2,1.00504905E-2,-2.9686123E-2,1.4815368E-1,-6.546069E-2,1.3046348E-1,-1.4124712E-1,2.7808554E-2],"split_indices":[32900,25721,14505,10501,32744,0,0,18731,38345,0,0,0,0,0,0],"split_type":[0,0,0,0,0,0,0,0,0,0,0,0,0,0,0],"sum_hessian":[2.7620844E1,1.9058632E1,8.562211E0,1.0466972E1,8.5916605E0,6.930247E0,1.6319642E0,4.2941666E0,6.1728053E0,1.467766E0,7.1238947E0,1.0403025E0,3.253864E0,5.0573144E0,1.115491E0],"tree_param":{"num_deleted":"0","num_feature":"50176","num_nodes":"15","size_leaf_vector":"1"}},{"base_weights":[1.4352106E-2,-2.6854736E-1,1.5294439E-1,-1.3287911E-1,1.6299619E-1,3.5063753E-1,-2.3144011E-1,-1.291341E-2,8.605487E-2,4.2014757E-1,-5.1774777E-2,-1.23665765E-1,6.991746E-2,-1.6783716E-2,1.4355774E-1],"categories":[],"categories_nodes":[],"categories_segments":[],"categories_sizes":[],"default_left":[0,0,0,0,0,0,0,0,0,0,0,0,0,0,0],"id":14,"left_children":[1,3,5,-1,7,9,11,-1,-1,13,-1,-1,-1,-1,-1],"loss_changes":[9.8001766E-1,6.9208354E-1,1.3510001E0,0E0,9.149799E-2,4.8830974E-1,6.232365E-1,0E0,0E0,3.1535733E-1,0E0,0E0,0E0,0E0,0E0],"parents":[2147483647,0,0,1,1,2,2,4,4,5,5,6,6,9,9],"right_children":[2,4,6,-1,8,10,12,-1,-1,14,-1,-1,-1,-1,-1],"split_conditions":[1.1755995E-1,7.030137E-3,1.3721023E-1,-1.3287911E-1,3.7051037E-2,1.4350799E-1,8.5842386E-2,-1.291341E-2,8.605487E-2,7.5941436E-2,-5.1774777E-2,-1.23665765E-1,6.991746E-2,-1.6783716E-2,1.4355774E-1],"split_indices":[43352,6913,21946,0,6198,18730,33107,0,0,16036,0,0,0,0,0],"split_type":[0,0,0,0,0,0,0,0,0,0,0,0,0,0,0],"sum_hessian":[2.294798E1,7.2372894E0,1.57106905E1,5.1356373E0,2.1016524E0,1.0432788E1,5.277902E0,1.0339842E0,1.0676682E0,9.38322E0,1.0495687E0,3.880278E0,1.3976241E0,1.0294434E0,8.353776E0],"tree_param":{"num_deleted":"0","num_feature":"50176","num_nodes":"15","size_leaf_vector":"1"}},{"base_weights":[-1.4352121E-2,2.6854736E-1,-1.5294442E-1,1.3287911E-1,-1.6299616E-1,-3.5063753E-1,2.3144007E-1,1.2913416E-2,-8.605487E-2,-4.2014757E-1,5.177478E-2,1.2366576E-1,-6.991747E-2,1.6783724E-2,-1.4355776E-1],"categories":[],"categories_nodes":[],"categories_segments":[],"categories_sizes":[],"default_left":[0,0,0,0,0,0,0,0,0,0,0,0,0,0,0],"id":15,"left_children":[1,3,5,-1,7,9,11,-1,-1,13,-1,-1,-1,-1,-1],"loss_changes":[9.800177E-1,6.9208354E-1,1.3509998E0,0E0,9.149801E-2,4.8830986E-1,6.232364E-1,0E0,0E0,3.1535745E-1,0E0,0E0,0E0,0E0,0E0],"parents":[2147483647,0,0,1,1,2,2,4,4,5,5,6,6,9,9],"right_children":[2,4,6,-1,8,10,12,-1,-1,14,-1,-1,-1,-1,-1],"split_conditions":[1.1755995E-1,7.030137E-3,1.3721023E-1,1.3287911E-1,3.7051037E-2,1.4350799E-1,8.5842386E-2,1.2913416E-2,-8.605487E-2,7.5941436E-2,5.177478E-2,1.2366576E-1,-6.991747E-2,1.6783724E-2,-1.4355776E-1],"split_indices":[43352,6913,21946,0,6198,18730,33107,0,0,16036,0,0,0,0,0],"split_type":[0,0,0,0,0,0,0,0,0,0,0,0,0,0,0],"sum_hessian":[2.294798E1,7.2372894E0,1.57106905E1,5.1356373E0,2.1016524E0,1.0432789E1,5.277902E0,1.0339842E0,1.0676682E0,9.38322E0,1.0495688E0,3.8802779E0,1.3976241E0,1.0294435E0,8.353776E0],"tree_param":{"num_deleted":"0","num_feature":"50176","num_nodes":"15","size_leaf_vector":"1"}},{"base_weights":[1.1229025E-2,-1.2097421E-1,9.9696904E-2,-1.7073764E-1,2.556361E-1,6.9254234E-2,-3.2248908E-1,3.829462E-1,-1.4080444E-1,1.9370098E-2,-1.2754504E-1,-1.3361874E-2,1.3849077E-1,-9.8470494E-2,4.990848E-2],"categories":[],"categories_nodes":[],"categories_segments":[],"categories_sizes":[],"default_left":[0,0,0,0,0,0,0,0,0,0,0,0,0,0,0],"id":16,"left_children":[1,-1,3,5,7,-1,9,11,13,-1,-1,-1,-1,-1,-1],"loss_changes":[7.8594553E-1,0E0,7.842661E-1,5.024125E-1,6.3633054E-1,0E0,2.465477E-1,3.2342398E-1,2.581881E-1,0E0,0E0,0E0,0E0,0E0,0E0],"parents":[2147483647,0,0,2,2,3,3,4,4,6,6,7,7,8,8],"right_children":[2,-1,4,6,8,-1,10,12,14,-1,-1,-1,-1,-1,-1],"split_conditions":[7.5781345E-3,-1.2097421E-1,2.1132806E-2,1.7662942E-1,9.581263E-2,6.9254234E-2,4.798913E-2,5.090943E-2,7.881268E-2,1.9370098E-2,-1.2754504E-1,-1.3361874E-2,1.3849077E-1,-9.8470494E-2,4.990848E-2],"split_indices":[49474,0,10683,21578,23951,0,2197,29230,9580,0,0,0,0,0,0],"split_type":[0,0,0,0,0,0,0,0,0,0,0,0,0,0,0],"sum_hessian":[1.9337791E1,2.7756433E0,1.656215E1,6.0226264E0,1.0539522E1,1.5087497E0,4.5138764E0,8.003405E0,2.5361178E0,1.0240467E0,3.4898298E0,1.3116705E0,6.691734E0,1.5324415E0,1.0036763E0],"tree_param":{"num_deleted":"0","num_feature":"50176","num_nodes":"15","size_leaf_vector":"1"}},{"base_weights":[-1.1229001E-2,1.2097422E-1,-9.969688E-2,1.7073764E-1,-2.5563607E-1,-6.925423E-2,3.2248908E-1,-3.829462E-1,1.4080445E-1,-1.9370113E-2,1.2754503E-1,1.3361896E-2,-1.3849077E-1,9.84705E-2,-4.990847E-2],"categories":[],"categories_nodes":[],"categories_segments":[],"categories_sizes":[],"default_left":[0,0,0,0,0,0,0,0,0,0,0,0,0,0,0],"id":17,"left_children":[1,-1,3,5,7,-1,9,11,13,-1,-1,-1,-1,-1,-1],"loss_changes":[7.8594565E-1,0E0,7.84266E-1,5.0241244E-1,6.3633066E-1,0E0,2.465477E-1,3.2342422E-1,2.581881E-1,0E0,0E0,0E0,0E0,0E0,0E0],"parents":[2147483647,0,0,2,2,3,3,4,4,6,6,7,7,8,8],"right_children":[2,-1,4,6,8,-1,10,12,14,-1,-1,-1,-1,-1,-1],"split_conditions":[7.5781345E-3,1.2097422E-1,2.1132806E-2,1.7662942E-1,9.581263E-2,-6.925423E-2,4.798913E-2,5.090943E-2,7.881268E-2,-1.9370113E-2,1.2754503E-1,1.3361896E-2,-1.3849077E-1,9.84705E-2,-4.990847E-2],"split_indices":[49474,0,10683,21578,23951,0,2197,29230,9580,0,0,0,0,0,0],"split_type":[0,0,0,0,0,0,0,0,0,0,0,0,0,0,0],"sum_hessian":[1.9337793E1,2.7756436E0,1.656215E1,6.022626E0,1.0539523E1,1.5087495E0,4.5138764E0,8.003405E0,2.5361183E0,1.0240467E0,3.4898298E0,1.3116707E0,6.691734E0,1.5324417E0,1.0036765E0],"tree_param":{"num_deleted":"0","num_feature":"50176","num_nodes":"15","size_leaf_vector":"1"}},{"base_weights":[5.2614645E-3,3.123703E-1,-1.081393E-1,-5.109554E-3,1.20228514E-1,-3.005916E-1,9.351373E-2,-3.8582954E-1,3.104273E-2,-2.1642533E-1,2.698838E-1,-1.3021669E-1,-2.1302257E-2,-8.8027805E-2,-6.969314E-3,1.21880256E-1,-4.3219116E-2],"categories":[],"categories_nodes":[],"categories_segments":[],"categories_sizes":[],"default_left":[0,0,0,0,0,0,0,0,0,0,0,0,0,0,0,0,0],"id":18,"left_children":[1,3,5,-1,-1,7,9,11,-1,13,15,-1,-1,-1,-1,-1,-1],"loss_changes":[6.3867384E-1,1.5069237E-1,5.4922163E-1,0E0,0E0,2.8473336E-1,4.5854205E-1,6.1506808E-2,0E0,4.0930584E-2,3.4702796E-1,0E0,0E0,0E0,0E0,0E0,0E0],"parents":[2147483647,0,0,1,1,2,2,5,5,6,6,7,7,9,9,10,10],"right_children":[2,4,6,-1,-1,8,10,12,-1,14,16,-1,-1,-1,-1,-1,-1],"split_conditions":[7.411052E-2,3.9135575E-2,4.839204E-2,-5.109554E-3,1.20228514E-1,3.849716E-2,7.208843E-2,1.3754238E-1,3.104273E-2,4.9655405E-3,1.0605199E-1,-1.3021669E-1,-2.1302257E-2,-8.8027805E-2,-6.969314E-3,1.21880256E-1,-4.3219116E-2],"split_indices":[18052,1483,46824,0,0,36027,16814,43967,0,32226,16852,0,0,0,0,0,0],"split_type":[0,0,0,0,0,0,0,0,0,0,0,0,0,0,0,0,0],"sum_hessian":[1.6368856E1,3.9411018E0,1.2427754E1,1.0046086E0,2.9364932E0,6.1078997E0,6.3198547E0,5.0811644E0,1.0267355E0,2.2096603E0,4.110194E0,4.077776E0,1.0033883E0,1.2089864E0,1.000674E0,3.1055565E0,1.0046376E0],"tree_param":{"num_deleted":"0","num_feature":"50176","num_nodes":"17","size_leaf_vector":"1"}},{"base_weights":[-5.2614547E-3,-3.123703E-1,1.081393E-1,5.1095765E-3,-1.2022852E-1,3.0059156E-1,-9.3513705E-2,3.858295E-1,-3.1042723E-2,2.1642536E-1,-2.698838E-1,1.3021669E-1,2.130223E-2,8.802781E-2,6.9693187E-3,-1.21880256E-1,4.3219116E-2],"categories":[],"categories_nodes":[],"categories_segments":[],"categories_sizes":[],"default_left":[0,0,0,0,0,0,0,0,0,0,0,0,0,0,0,0,0],"id":19,"left_children":[1,3,5,-1,-1,7,9,11,-1,13,15,-1,-1,-1,-1,-1,-1],"loss_changes":[6.3867384E-1,1.5069243E-1,5.492215E-1,0E0,0E0,2.847333E-1,4.5854214E-1,6.1507046E-2,0E0,4.0930614E-2,3.4702793E-1,0E0,0E0,0E0,0E0,0E0,0E0],"parents":[2147483647,0,0,1,1,2,2,5,5,6,6,7,7,9,9,10,10],"right_children":[2,4,6,-1,-1,8,10,12,-1,14,16,-1,-1,-1,-1,-1,-1],"split_conditions":[7.411052E-2,3.9135575E-2,4.839204E-2,5.1095765E-3,-1.2022852E-1,3.849716E-2,7.208843E-2,1.3754238E-1,-3.1042723E-2,4.9655405E-3,1.0605199E-1,1.3021669E-1,2.130223E-2,8.802781E-2,6.9693187E-3,-1.21880256E-1,4.3219116E-2],"split_indices":[18052,1483,46824,0,0,36027,16814,43967,0,32226,16852,0,0,0,0,0,0],"split_type":[0,0,0,0,0,0,0,0,0,0,0,0,0,0,0,0,0],"sum_hessian":[1.6368856E1,3.9411018E0,1.2427755E1,1.0046084E0,2.9364932E0,6.1079E0,6.3198547E0,5.081165E0,1.0267354E0,2.2096608E0,4.110194E0,4.077776E0,1.0033884E0,1.2089866E0,1.0006741E0,3.1055567E0,1.0046376E0],"tree_param":{"num_deleted":"0","num_feature":"50176","num_nodes":"17","size_leaf_vector":"1"}},{"base_weights":[3.3371733E-3,1.9780536E-1,-1.8376142E-1,-1.2439349E-1,3.3238697E-1,6.1417576E-2,-2.9265836E-1,-8.1979774E-2,2.7129747E-2,1.2577482E-1,-9.851887E-3,8.969824E-3,-1.23249665E-1],"categories":[],"categories_nodes":[],"categories_segments":[],"categories_sizes":[],"default_left":[0,0,0,0,0,0,0,0,0,0,0,0,0],"id":20,"left_children":[1,3,5,7,9,-1,11,-1,-1,-1,-1,-1,-1],"loss_changes":[5.874592E-1,3.8428402E-1,4.084253E-1,1.2250625E-1,1.9938403E-1,0E0,2.7323937E-1,0E0,0E0,0E0,0E0,0E0,0E0],"parents":[2147483647,0,0,1,1,2,2,3,3,4,4,6,6],"right_children":[2,4,6,8,10,-1,12,-1,-1,-1,-1,-1,-1],"split_conditions":[7.764577E-2,5.5391714E-2,8.114602E-2,5.025772E-4,3.150538E-2,6.1417576E-2,2.6316993E-2,-8.1979774E-2,2.7129747E-2,1.2577482E-1,-9.851887E-3,8.969824E-3,-1.23249665E-1],"split_indices":[44783,44532,25193,43345,16501,0,41904,0,0,0,0,0,0],"split_type":[0,0,0,0,0,0,0,0,0,0,0,0,0],"sum_hessian":[1.4146746E1,6.9086976E0,7.2380486E0,2.0578194E0,4.8508782E0,1.3920304E0,5.8460183E0,1.0548111E0,1.0030081E0,3.7993555E0,1.0515227E0,1.7677895E0,4.0782285E0],"tree_param":{"num_deleted":"0","num_feature":"50176","num_nodes":"13","size_leaf_vector":"1"}},{"base_weights":[-3.3371847E-3,-1.9780539E-1,1.8376142E-1,1.24393485E-1,-3.3238697E-1,-6.1417565E-2,2.9265833E-1,8.197978E-2,-2.7129764E-2,-1.2577482E-1,9.851884E-3,-8.9698415E-3,1.2324966E-1],"categories":[],"categories_nodes":[],"categories_segments":[],"categories_sizes":[],"default_left":[0,0,0,0,0,0,0,0,0,0,0,0,0],"id":21,"left_children":[1,3,5,7,9,-1,11,-1,-1,-1,-1,-1,-1],"loss_changes":[5.8745927E-1,3.8428405E-1,4.0842512E-1,1.225063E-1,1.9938403E-1,0E0,2.7323955E-1,0E0,0E0,0E0,0E0,0E0,0E0],"parents":[2147483647,0,0,1,1,2,2,3,3,4,4,6,6],"right_children":[2,4,6,8,10,-1,12,-1,-1,-1,-1,-1,-1],"split_conditions":[7.764577E-2,5.5391714E-2,8.114602E-2,5.025772E-4,3.150538E-2,-6.1417565E-2,2.6316993E-2,8.197978E-2,-2.7129764E-2,-1.2577482E-1,9.851884E-3,-8.9698415E-3,1.2324966E-1],"split_indices":[44783,44532,25193,43345,16501,0,41904,0,0,0,0,0,0],"split_type":[0,0,0,0,0,0,0,0,0,0,0,0,0],"sum_hessian":[1.4146747E1,6.908698E0,7.238049E0,2.0578194E0,4.8508787E0,1.3920305E0,5.846019E0,1.0548114E0,1.003008E0,3.799356E0,1.0515226E0,1.7677896E0,4.078229E0],"tree_param":{"num_deleted":"0","num_feature":"50176","num_nodes":"13","size_leaf_vector":"1"}},{"base_weights":[3.1180328E-3,2.4298218E-1,-1.2367236E-1,1.0963969E-1,-2.9836196E-2,-2.8603473E-1,1.3181771E-1,1.9526344E-2,-1.13483354E-1,9.721177E-2,-6.905521E-2],"categories":[],"categories_nodes":[],"categories_segments":[],"categories_sizes":[],"default_left":[0,0,0,0,0,0,0,0,0,0,0],"id":22,"left_children":[1,3,5,-1,-1,7,9,-1,-1,-1,-1],"loss_changes":[4.3603805E-1,2.4411315E-1,4.2746186E-1,0E0,0E0,2.2090968E-1,3.7626627E-1,0E0,0E0,0E0,0E0],"parents":[2147483647,0,0,1,1,2,2,5,5,6,6],"right_children":[2,4,6,-1,-1,8,10,-1,-1,-1,-1],"split_conditions":[4.253845E-2,6.913706E-2,7.172457E-2,1.0963969E-1,-2.9836196E-2,1.3902557E-1,1.5610677E-1,1.9526344E-2,-1.13483354E-1,9.721177E-2,-6.905521E-2],"split_indices":[21714,46982,3312,0,0,29945,25671,0,0,0,0],"split_type":[0,0,0,0,0,0,0,0,0,0,0],"sum_hessian":[1.2349389E1,3.9535637E0,8.395825E0,2.86246E0,1.0911038E0,5.0604115E0,3.3354135E0,1.1140769E0,3.9463348E0,2.2470872E0,1.0883262E0],"tree_param":{"num_deleted":"0","num_feature":"50176","num_nodes":"11","size_leaf_vector":"1"}},{"base_weights":[-3.11801E-3,-2.4298215E-1,1.2367237E-1,-1.0963969E-1,2.9836198E-2,2.860347E-1,-1.3181765E-1,-1.9526334E-2,1.1348335E-1,-9.721177E-2,6.9055215E-2],"categories":[],"categories_nodes":[],"categories_segments":[],"categories_sizes":[],"default_left":[0,0,0,0,0,0,0,0,0,0,0],"id":23,"left_children":[1,3,5,-1,-1,7,9,-1,-1,-1,-1],"loss_changes":[4.3603808E-1,2.4411318E-1,4.2746168E-1,0E0,0E0,2.2090977E-1,3.762664E-1,0E0,0E0,0E0,0E0],"parents":[2147483647,0,0,1,1,2,2,5,5,6,6],"right_children":[2,4,6,-1,-1,8,10,-1,-1,-1,-1],"split_conditions":[4.253845E-2,6.913706E-2,7.172457E-2,-1.0963969E-1,2.9836198E-2,1.3902557E-1,1.5610677E-1,-1.9526334E-2,1.1348335E-1,-9.721177E-2,6.9055215E-2],"split_indices":[21714,46982,3312,0,0,29945,25671,0,0,0,0],"split_type":[0,0,0,0,0,0,0,0,0,0,0],"sum_hessian":[1.2349391E1,3.9535644E0,8.395826E0,2.8624601E0,1.0911043E0,5.060413E0,3.3354142E0,1.1140773E0,3.9463353E0,2.2470875E0,1.0883267E0],"tree_param":{"num_deleted":"0","num_feature":"50176","num_nodes":"11","size_leaf_vector":"1"}},{"base_weights":[3.741498E-3,-1.5590161E-1,1.7442721E-1,4.535851E-2,-2.9723355E-1,3.395153E-1,-5.879372E-2,-1.151126E-1,-7.211702E-4,2.9511934E-2,1.1371667E-1],"categories":[],"categories_nodes":[],"categories_segments":[],"categories_sizes":[],"default_left":[0,0,0,0,0,0,0,0,0,0,0],"id":24,"left_children":[1,3,5,-1,7,9,-1,-1,-1,-1,-1],"loss_changes":[3.4764564E-1,3.3160216E-1,4.4294503E-1,0E0,1.2299213E-1,6.7982078E-3,0E0,0E0,0E0,0E0,0E0],"parents":[2147483647,0,0,1,1,2,2,4,4,5,5],"right_children":[2,4,6,-1,8,10,-1,-1,-1,-1,-1],"split_conditions":[7.3489316E-2,8.4884375E-2,1.8232393E-1,4.535851E-2,1.0335769E-1,5.626843E-2,-5.879372E-2,-1.151126E-1,-7.211702E-4,2.9511934E-2,1.1371667E-1],"split_indices":[6062,30103,21578,0,43476,7148,0,0,0,0,0],"split_type":[0,0,0,0,0,0,0,0,0,0,0],"sum_hessian":[1.076023E1,5.6047235E0,5.1555066E0,1.7444547E0,3.8602686E0,3.6237972E0,1.5317094E0,2.7517169E0,1.1085519E0,1.0018412E0,2.621956E0],"tree_param":{"num_deleted":"0","num_feature":"50176","num_nodes":"11","size_leaf_vector":"1"}},{"base_weights":[-3.741479E-3,1.5590169E-1,-1.7442724E-1,-4.53585E-2,2.9723364E-1,-3.3951533E-1,5.8793727E-2,1.151126E-1,7.2121783E-4,-2.9511942E-2,-1.13716684E-1],"categories":[],"categories_nodes":[],"categories_segments":[],"categories_sizes":[],"default_left":[0,0,0,0,0,0,0,0,0,0,0],"id":25,"left_children":[1,3,5,-1,7,9,-1,-1,-1,-1,-1],"loss_changes":[3.4764582E-1,3.3160225E-1,4.4294515E-1,0E0,1.2299195E-1,6.7982078E-3,0E0,0E0,0E0,0E0,0E0],"parents":[2147483647,0,0,1,1,2,2,4,4,5,5],"right_children":[2,4,6,-1,8,10,-1,-1,-1,-1,-1],"split_conditions":[7.3489316E-2,8.4884375E-2,1.8232393E-1,-4.53585E-2,1.0335769E-1,5.626843E-2,5.8793727E-2,1.151126E-1,7.2121783E-4,-2.9511942E-2,-1.13716684E-1],"split_indices":[6062,30103,21578,0,43476,7148,0,0,0,0,0],"split_type":[0,0,0,0,0,0,0,0,0,0,0],"sum_hessian":[1.0760231E1,5.6047235E0,5.1555076E0,1.7444549E0,3.8602686E0,3.623798E0,1.5317094E0,2.751717E0,1.1085515E0,1.0018414E0,2.6219563E0],"tree_param":{"num_deleted":"0","num_feature":"50176","num_nodes":"11","size_leaf_vector":"1"}},{"base_weights":[3.9196378E-3,1.9056587E-1,-1.4010787E-1,-3.4323197E-2,9.842186E-2,-2.6547816E-1,6.546172E-2,1.2336715E-2,-1.0641285E-1],"categories":[],"categories_nodes":[],"categories_segments":[],"categories_sizes":[],"default_left":[0,0,0,0,0,0,0,0,0],"id":26,"left_children":[1,3,5,-1,-1,7,-1,-1,-1],"loss_changes":[3.1070283E-1,2.4827605E-1,3.5169435E-1,0E0,0E0,1.5946499E-1,0E0,0E0,0E0],"parents":[2147483647,0,0,1,1,2,2,5,5],"right_children":[2,4,6,-1,-1,8,-1,-1,-1],"split_conditions":[5.4368086E-2,7.547296E-2,2.0232981E-2,-3.4323197E-2,9.842186E-2,3.923129E-2,6.546172E-2,1.2336715E-2,-1.0641285E-1],"split_indices":[22773,15740,39740,0,0,18814,0,0,0],"split_type":[0,0,0,0,0,0,0,0,0],"sum_hessian":[9.564728E0,4.0252533E0,5.5394745E0,1.303092E0,2.7221615E0,4.2955832E0,1.2438912E0,1.0898806E0,3.2057028E0],"tree_param":{"num_deleted":"0","num_feature":"50176","num_nodes":"9","size_leaf_vector":"1"}},{"base_weights":[-3.919728E-3,-1.9056591E-1,1.401078E-1,3.4323182E-2,-9.842185E-2,2.6547807E-1,-6.5461725E-2,-1.2336727E-2,1.06412835E-1],"categories":[],"categories_nodes":[],"categories_segments":[],"categories_sizes":[],"default_left":[0,0,0,0,0,0,0,0,0],"id":27,"left_children":[1,3,5,-1,-1,7,-1,-1,-1],"loss_changes":[3.1070274E-1,2.4827598E-1,3.516943E-1,0E0,0E0,1.5946507E-1,0E0,0E0,0E0],"parents":[2147483647,0,0,1,1,2,2,5,5],"right_children":[2,4,6,-1,-1,8,-1,-1,-1],"split_conditions":[5.4368086E-2,7.547296E-2,2.0232981E-2,3.4323182E-2,-9.842185E-2,3.923129E-2,-6.5461725E-2,-1.2336727E-2,1.06412835E-1],"split_indices":[22773,15740,39740,0,0,18814,0,0,0],"split_type":[0,0,0,0,0,0,0,0,0],"sum_hessian":[9.564728E0,4.0252542E0,5.539474E0,1.3030918E0,2.7221622E0,4.295583E0,1.2438911E0,1.0898812E0,3.2057018E0],"tree_param":{"num_deleted":"0","num_feature":"50176","num_nodes":"9","size_leaf_vector":"1"}},{"base_weights":[6.2191207E-3,-1.7247808E-1,1.49534E-1,-9.047586E-2,3.2279845E-2,2.9317552E-1,-4.5868307E-2,1.8046847E-2,1.0415991E-1],"categories":[],"categories_nodes":[],"categories_segments":[],"categories_sizes":[],"default_left":[0,0,0,0,0,0,0,0,0],"id":28,"left_children":[1,3,5,-1,-1,7,-1,-1,-1],"loss_changes":[2.7009732E-1,2.027663E-1,2.9806417E-1,0E0,0E0,3.318274E-2,0E0,0E0,0E0],"parents":[2147483647,0,0,1,1,2,2,5,5],"right_children":[2,4,6,-1,-1,8,-1,-1,-1],"split_conditions":[5.3292003E-2,2.308498E-3,5.736367E-2,-9.047586E-2,3.2279845E-2,1.2815911E-2,-4.5868307E-2,1.8046847E-2,1.0415991E-1],"split_indices":[10501,6072,21881,0,0,11067,0,0,0],"split_type":[0,0,0,0,0,0,0,0,0],"sum_hessian":[8.539489E0,3.710024E0,4.8294644E0,2.4868562E0,1.2231679E0,3.295044E0,1.5344207E0,1.0179374E0,2.2771065E0],"tree_param":{"num_deleted":"0","num_feature":"50176","num_nodes":"9","size_leaf_vector":"1"}},{"base_weights":[-6.2191547E-3,1.7247808E-1,-1.4953406E-1,9.047586E-2,-3.2279857E-2,-2.9317564E-1,4.586834E-2,-1.8046876E-2,-1.0415993E-1],"categories":[],"categories_nodes":[],"categories_segments":[],"categories_sizes":[],"default_left":[0,0,0,0,0,0,0,0,0],"id":29,"left_children":[1,3,5,-1,-1,7,-1,-1,-1],"loss_changes":[2.7009746E-1,2.0276639E-1,2.980645E-1,0E0,0E0,3.318265E-2,0E0,0E0,0E0],"parents":[2147483647,0,0,1,1,2,2,5,5],"right_children":[2,4,6,-1,-1,8,-1,-1,-1],"split_conditions":[5.3292003E-2,2.308498E-3,5.736367E-2,9.047586E-2,-3.2279857E-2,1.2815911E-2,4.586834E-2,-1.8046876E-2,-1.0415993E-1],"split_indices":[10501,6072,21881,0,0,11067,0,0,0],"split_type":[0,0,0,0,0,0,0,0,0],"sum_hessian":[8.53949E0,3.7100244E0,4.829465E0,2.4868565E0,1.2231679E0,3.2950447E0,1.5344204E0,1.0179373E0,2.2771072E0],"tree_param":{"num_deleted":"0","num_feature":"50176","num_nodes":"9","size_leaf_vector":"1"}},{"base_weights":[7.465624E-3,-1.8219268E-1,1.3572913E-1,-9.44213E-2,2.3679633E-2,-4.2119324E-2,2.4632151E-1,9.87479E-2,7.478003E-4],"categories":[],"categories_nodes":[],"categories_segments":[],"categories_sizes":[],"default_left":[0,0,0,0,0,0,0,0,0],"id":30,"left_children":[1,3,5,-1,-1,-1,7,-1,-1],"loss_changes":[2.3758085E-1,1.6179822E-1,2.1148324E-1,0E0,0E0,0E0,9.005794E-2,0E0,0E0],"parents":[2147483647,0,0,1,1,2,2,6,6],"right_children":[2,4,6,-1,-1,-1,8,-1,-1],"split_conditions":[1.959417E-2,1.1946491E-2,1.2547787E-1,-9.44213E-2,2.3679633E-2,-4.2119324E-2,8.214072E-2,9.87479E-2,7.478003E-4],"split_indices":[47297,19309,1836,0,0,0,46735,0,0],"split_type":[0,0,0,0,0,0,0,0,0],"sum_hessian":[7.749894E0,2.9570146E0,4.7928796E0,1.8252277E0,1.1317868E0,1.2935756E0,3.4993038E0,2.3507133E0,1.1485906E0],"tree_param":{"num_deleted":"0","num_feature":"50176","num_nodes":"9","size_leaf_vector":"1"}},{"base_weights":[-7.465597E-3,1.821926E-1,-1.3572906E-1,9.442129E-2,-2.3679676E-2,4.211935E-2,-2.4632147E-1,-9.874789E-2,-7.477956E-4],"categories":[],"categories_nodes":[],"categories_segments":[],"categories_sizes":[],"default_left":[0,0,0,0,0,0,0,0,0],"id":31,"left_children":[1,3,5,-1,-1,-1,7,-1,-1],"loss_changes":[2.3758064E-1,1.6179839E-1,2.1148327E-1,0E0,0E0,0E0,9.005791E-2,0E0,0E0],"parents":[2147483647,0,0,1,1,2,2,6,6],"right_children":[2,4,6,-1,-1,-1,8,-1,-1],"split_conditions":[1.959417E-2,1.1946491E-2,1.2547787E-1,9.442129E-2,-2.3679676E-2,4.211935E-2,8.214072E-2,-9.874789E-2,-7.477956E-4],"split_indices":[47297,19309,1836,0,0,0,46735,0,0],"split_type":[0,0,0,0,0,0,0,0,0],"sum_hessian":[7.7498937E0,2.9570148E0,4.7928786E0,1.825228E0,1.1317868E0,1.2935754E0,3.4993033E0,2.3507128E0,1.1485907E0],"tree_param":{"num_deleted":"0","num_feature":"50176","num_nodes":"9","size_leaf_vector":"1"}},{"base_weights":[4.500497E-3,1.6590713E-1,-1.4801772E-1,-2.8547749E-2,8.262029E-2,3.0293072E-2,-8.0910936E-2],"categories":[],"categories_nodes":[],"categories_segments":[],"categories_sizes":[],"default_left":[0,0,0,0,0,0,0],"id":32,"left_children":[1,3,5,-1,-1,-1,-1],"loss_changes":[2.228697E-1,1.5156269E-1,1.6874295E-1,0E0,0E0,0E0,0E0],"parents":[2147483647,0,0,1,1,2,2],"right_children":[2,4,6,-1,-1,-1,-1],"split_conditions":[7.764577E-2,5.5391714E-2,5.3500764E-2,-2.8547749E-2,8.262029E-2,3.0293072E-2,-8.0910936E-2],"split_indices":[44783,44532,18677,0,0,0,0],"split_type":[0,0,0,0,0,0,0],"sum_hessian":[7.0557694E0,3.3853467E0,3.6704226E0,1.0389926E0,2.346354E0,1.2607782E0,2.4096444E0],"tree_param":{"num_deleted":"0","num_feature":"50176","num_nodes":"7","size_leaf_vector":"1"}},{"base_weights":[-4.50049E-3,-1.6590717E-1,1.4801776E-1,2.8547727E-2,-8.26203E-2,-3.0293087E-2,8.091095E-2],"categories":[],"categories_nodes":[],"categories_segments":[],"categories_sizes":[],"default_left":[0,0,0,0,0,0,0],"id":33,"left_children":[1,3,5,-1,-1,-1,-1],"loss_changes":[2.2286981E-1,1.5156266E-1,1.6874304E-1,0E0,0E0,0E0,0E0],"parents":[2147483647,0,0,1,1,2,2],"right_children":[2,4,6,-1,-1,-1,-1],"split_conditions":[7.764577E-2,5.5391714E-2,5.3500764E-2,2.8547727E-2,-8.26203E-2,-3.0293087E-2,8.091095E-2],"split_indices":[44783,44532,18677,0,0,0,0],"split_type":[0,0,0,0,0,0,0],"sum_hessian":[7.055769E0,3.3853462E0,3.6704226E0,1.0389928E0,2.3463533E0,1.260778E0,2.4096446E0],"tree_param":{"num_deleted":"0","num_feature":"50176","num_nodes":"7","size_leaf_vector":"1"}},{"base_weights":[3.9221374E-3,1.0805246E-1,-6.089813E-2,-4.1848682E-2,2.4638888E-1,9.42805E-2,7.0376405E-3],"categories":[],"categories_nodes":[],"categories_segments":[],"categories_sizes":[],"default_left":[0,0,0,0,0,0,0],"id":34,"left_children":[1,3,-1,-1,5,-1,-1],"loss_changes":[1.8384387E-1,2.2790459E-1,0E0,0E0,5.295989E-2,0E0,0E0],"parents":[2147483647,0,0,1,1,4,4],"right_children":[2,4,-1,-1,6,-1,-1],"split_conditions":[1.3891296E-1,1.1783791E-1,-6.089813E-2,-4.1848682E-2,1.0726453E-3,9.42805E-2,7.0376405E-3],"split_indices":[15034,43352,0,0,40906,0,0],"split_type":[0,0,0,0,0,0,0],"sum_hessian":[6.514539E0,4.6514792E0,1.8630595E0,1.6645133E0,2.9869661E0,1.9756792E0,1.0112869E0],"tree_param":{"num_deleted":"0","num_feature":"50176","num_nodes":"7","size_leaf_vector":"1"}},{"base_weights":[-3.922156E-3,-1.08052485E-1,6.0898114E-2,4.1848686E-2,-2.4638884E-1,-9.428051E-2,-7.0376014E-3],"categories":[],"categories_nodes":[],"categories_segments":[],"categories_sizes":[],"default_left":[0,0,0,0,0,0,0],"id":35,"left_children":[1,3,-1,-1,5,-1,-1],"loss_changes":[1.8384382E-1,2.2790447E-1,0E0,0E0,5.2960023E-2,0E0,0E0],"parents":[2147483647,0,0,1,1,4,4],"right_children":[2,4,-1,-1,6,-1,-1],"split_conditions":[1.3891296E-1,1.1783791E-1,6.0898114E-2,4.1848686E-2,1.0726453E-3,-9.428051E-2,-7.0376014E-3],"split_indices":[15034,43352,0,0,40906,0,0],"split_type":[0,0,0,0,0,0,0],"sum_hessian":[6.5145373E0,4.651478E0,1.8630595E0,1.6645119E0,2.986966E0,1.9756793E0,1.0112867E0],"tree_param":{"num_deleted":"0","num_feature":"50176","num_nodes":"7","size_leaf_vector":"1"}},{"base_weights":[4.075779E-3,-1.1092387E-1,6.0484387E-2,4.1917976E-2,-2.1287973E-1,-8.912439E-2,4.9042054E-3],"categories":[],"categories_nodes":[],"categories_segments":[],"categories_sizes":[],"default_left":[0,0,0,0,0,0,0],"id":36,"left_children":[1,3,-1,-1,5,-1,-1],"loss_changes":[1.8246123E-1,1.6006246E-1,0E0,0E0,8.247088E-2,0E0,0E0],"parents":[2147483647,0,0,1,1,4,4],"right_children":[2,4,-1,-1,6,-1,-1],"split_conditions":[6.172715E-2,4.253845E-2,6.0484387E-2,4.1917976E-2,4.2470163E-3,-8.912439E-2,4.9042054E-3],"split_indices":[2377,21714,0,0,49787,0,0],"split_type":[0,0,0,0,0,0,0],"sum_hessian":[6.0475016E0,4.0994353E0,1.9480659E0,1.0782301E0,3.0212054E0,1.9930785E0,1.028127E0],"tree_param":{"num_deleted":"0","num_feature":"50176","num_nodes":"7","size_leaf_vector":"1"}},{"base_weights":[-4.0757447E-3,1.10923916E-1,-6.048439E-2,-4.191796E-2,2.1287972E-1,8.912439E-2,-4.9042027E-3],"categories":[],"categories_nodes":[],"categories_segments":[],"categories_sizes":[],"default_left":[0,0,0,0,0,0,0],"id":37,"left_children":[1,3,-1,-1,5,-1,-1],"loss_changes":[1.8246134E-1,1.600624E-1,0E0,0E0,8.247091E-2,0E0,0E0],"parents":[2147483647,0,0,1,1,4,4],"right_children":[2,4,-1,-1,6,-1,-1],"split_conditions":[6.172715E-2,4.253845E-2,-6.048439E-2,-4.191796E-2,4.2470163E-3,8.912439E-2,-4.9042027E-3],"split_indices":[2377,21714,0,0,49787,0,0],"split_type":[0,0,0,0,0,0,0],"sum_hessian":[6.047502E0,4.0994363E0,1.9480661E0,1.0782298E0,3.0212064E0,1.993079E0,1.0281274E0],"tree_param":{"num_deleted":"0","num_feature":"50176","num_nodes":"7","size_leaf_vector":"1"}},{"base_weights":[4.63514E-3,-1.350147E-1,1.4168261E-1,2.9048996E-2,-7.767959E-2,-1.6244736E-2,7.398333E-2],"categories":[],"categories_nodes":[],"categories_segments":[],"categories_sizes":[],"default_left":[0,0,0,0,0,0,0],"id":38,"left_children":[1,3,5,-1,-1,-1,-1],"loss_changes":[1.4573699E-1,1.3391674E-1,9.198612E-2,0E0,0E0,0E0,0E0],"parents":[2147483647,0,0,1,1,2,2],"right_children":[2,4,6,-1,-1,-1,-1],"split_conditions":[1.0840843E-2,1.4280203E-2,1.3393472E-1,2.9048996E-2,-7.767959E-2,-1.6244736E-2,7.398333E-2],"split_indices":[29037,10861,2346,0,0,0,0],"split_type":[0,0,0,0,0,0,0],"sum_hessian":[5.615289E0,2.7885847E0,2.8267045E0,1.0474449E0,1.7411398E0,1.1550103E0,1.6716942E0],"tree_param":{"num_deleted":"0","num_feature":"50176","num_nodes":"7","size_leaf_vector":"1"}},{"base_weights":[-4.635148E-3,1.3501476E-1,-1.4168265E-1,-2.904898E-2,7.767959E-2,1.6244747E-2,-7.398334E-2],"categories":[],"categories_nodes":[],"categories_segments":[],"categories_sizes":[],"default_left":[0,0,0,0,0,0,0],"id":39,"left_children":[1,3,5,-1,-1,-1,-1],"loss_changes":[1.4573711E-1,1.339167E-1,9.19862E-2,0E0,0E0,0E0,0E0],"parents":[2147483647,0,0,1,1,2,2],"right_children":[2,4,6,-1,-1,-1,-1],"split_conditions":[1.0840843E-2,1.4280203E-2,1.3393472E-1,-2.904898E-2,7.767959E-2,1.6244747E-2,-7.398334E-2],"split_indices":[29037,10861,2346,0,0,0,0],"split_type":[0,0,0,0,0,0,0],"sum_hessian":[5.61529E0,2.7885847E0,2.8267052E0,1.0474447E0,1.7411401E0,1.1550103E0,1.6716949E0],"tree_param":{"num_deleted":"0","num_feature":"50176","num_nodes":"7","size_leaf_vector":"1"}},{"base_weights":[4.760502E-3,6.135935E-2,-8.952527E-2,2.8044734E-2,-2.0949826E-1,-8.322239E-2,-8.203113E-3],"categories":[],"categories_nodes":[],"categories_segments":[],"categories_sizes":[],"default_left":[0,0,0,0,0,0,0],"id":40,"left_children":[1,-1,3,-1,5,-1,-1],"loss_changes":[1.3578781E-1,0E0,1.2788725E-1,0E0,3.308779E-2,0E0,0E0],"parents":[2147483647,0,0,2,2,4,4],"right_children":[2,-1,4,-1,6,-1,-1],"split_conditions":[7.411052E-2,6.135935E-2,2.8258203E-2,2.8044734E-2,1.3022463E-1,-8.322239E-2,-8.203113E-3],"split_indices":[18052,0,26034,0,43660,0,0],"split_type":[0,0,0,0,0,0,0],"sum_hessian":[5.236995E0,1.3042691E0,3.932726E0,1.644697E0,2.2880292E0,1.2857555E0,1.0022737E0],"tree_param":{"num_deleted":"0","num_feature":"50176","num_nodes":"7","size_leaf_vector":"1"}},{"base_weights":[-4.760566E-3,-6.135934E-2,8.95252E-2,-2.8044702E-2,2.0949808E-1,8.322236E-2,8.203077E-3],"categories":[],"categories_nodes":[],"categories_segments":[],"categories_sizes":[],"default_left":[0,0,0,0,0,0,0],"id":41,"left_children":[1,-1,3,-1,5,-1,-1],"loss_changes":[1.3578773E-1,0E0,1.2788701E-1,0E0,3.308779E-2,0E0,0E0],"parents":[2147483647,0,0,2,2,4,4],"right_children":[2,-1,4,-1,6,-1,-1],"split_conditions":[7.411052E-2,-6.135934E-2,2.8258203E-2,-2.8044702E-2,1.3022463E-1,8.322236E-2,8.203077E-3],"split_indices":[18052,0,26034,0,43660,0,0],"split_type":[0,0,0,0,0,0,0],"sum_hessian":[5.2369947E0,1.3042696E0,3.9327254E0,1.6446968E0,2.2880285E0,1.2857548E0,1.0022737E0],"tree_param":{"num_deleted":"0","num_feature":"50176","num_nodes":"7","size_leaf_vector":"1"}},{"base_weights":[2.4387285E-3,1.0250693E-1,-5.1641338E-2,-2.7927835E-2,7.1478456E-2],"categories":[],"categories_nodes":[],"categories_segments":[],"categories_sizes":[],"default_left":[0,0,0,0,0],"id":42,"left_children":[1,3,-1,-1,-1],"loss_changes":[1.2123112E-1,1.3890518E-1,0E0,0E0,0E0],"parents":[2147483647,0,0,1,1],"right_children":[2,4,-1,-1,-1],"split_conditions":[1.928475E-1,2.0328412E-2,-5.1641338E-2,-2.7927835E-2,7.1478456E-2],"split_indices":[31145,43337,0,0,0],"split_type":[0,0,0,0,0],"sum_hessian":[4.9295034E0,3.395824E0,1.5336796E0,1.520006E0,1.875818E0],"tree_param":{"num_deleted":"0","num_feature":"50176","num_nodes":"5","size_leaf_vector":"1"}},{"base_weights":[-2.4387725E-3,-1.0250696E-1,5.1641334E-2,2.7927792E-2,-7.147845E-2],"categories":[],"categories_nodes":[],"categories_segments":[],"categories_sizes":[],"default_left":[0,0,0,0,0],"id":43,"left_children":[1,3,-1,-1,-1],"loss_changes":[1.2123112E-1,1.3890505E-1,0E0,0E0,0E0],"parents":[2147483647,0,0,1,1],"right_children":[2,4,-1,-1,-1],"split_conditions":[1.928475E-1,2.0328412E-2,5.1641334E-2,2.7927792E-2,-7.147845E-2],"split_indices":[31145,43337,0,0,0],"split_type":[0,0,0,0,0],"sum_hessian":[4.9295034E0,3.3958242E0,1.5336791E0,1.5200065E0,1.8758178E0],"tree_param":{"num_deleted":"0","num_feature":"50176","num_nodes":"5","size_leaf_vector":"1"}},{"base_weights":[1.0359044E-3,1.3332471E-1,-1.2521799E-1,-1.5882362E-2,7.4554294E-2,-7.093418E-2,1.7642977E-2],"categories":[],"categories_nodes":[],"categories_segments":[],"categories_sizes":[],"default_left":[0,0,0,0,0,0,0],"id":44,"left_children":[1,3,5,-1,-1,-1,-1],"loss_changes":[1.1124609E-1,8.286252E-2,8.375268E-2,0E0,0E0,0E0,0E0],"parents":[2147483647,0,0,1,1,2,2],"right_children":[2,4,6,-1,-1,-1,-1],"split_conditions":[7.764577E-2,6.1364103E-2,3.6726024E-2,-1.5882362E-2,7.4554294E-2,-7.093418E-2,1.7642977E-2],"split_indices":[44783,32154,41053,0,0,0,0],"split_type":[0,0,0,0,0,0,0],"sum_hessian":[4.6610923E0,2.2487977E0,2.4122946E0,1.0657841E0,1.1830136E0,1.3259972E0,1.0862973E0],"tree_param":{"num_deleted":"0","num_feature":"50176","num_nodes":"7","size_leaf_vector":"1"}},{"base_weights":[-1.0360477E-3,-1.333248E-1,1.2521785E-1,1.5882354E-2,-7.4554324E-2,7.0934154E-2,-1.7642995E-2],"categories":[],"categories_nodes":[],"categories_segments":[],"categories_sizes":[],"default_left":[0,0,0,0,0,0,0],"id":45,"left_children":[1,3,5,-1,-1,-1,-1],"loss_changes":[1.1124606E-1,8.286257E-2,8.37527E-2,0E0,0E0,0E0,0E0],"parents":[2147483647,0,0,1,1,2,2],"right_children":[2,4,6,-1,-1,-1,-1],"split_conditions":[7.764577E-2,6.1364103E-2,3.6726024E-2,1.5882354E-2,-7.4554324E-2,7.0934154E-2,-1.7642995E-2],"split_indices":[44783,32154,41053,0,0,0,0],"split_type":[0,0,0,0,0,0,0],"sum_hessian":[4.661093E0,2.2487986E0,2.4122946E0,1.0657845E0,1.183014E0,1.3259969E0,1.0862979E0],"tree_param":{"num_deleted":"0","num_feature":"50176","num_nodes":"7","size_leaf_vector":"1"}},{"base_weights":[1.867471E-3,-4.0734384E-2,1.2248544E-1,-1.9541701E-2,7.025917E-2],"categories":[],"categories_nodes":[],"categories_segments":[],"categories_sizes":[],"default_left":[0,0,0,0,0],"id":46,"left_children":[1,-1,3,-1,-1],"loss_changes":[1.0579689E-1,0E0,8.626851E-2,0E0,0E0],"parents":[2147483647,0,0,2,2],"right_children":[2,-1,4,-1,-1],"split_conditions":[9.406591E-2,-4.0734384E-2,2.246215E-2,-1.9541701E-2,7.025917E-2],"split_indices":[13287,0,42497,0,0],"split_type":[0,0,0,0,0],"sum_hessian":[4.370483E0,1.9824291E0,2.388054E0,1.0468047E0,1.3412491E0],"tree_param":{"num_deleted":"0","num_feature":"50176","num_nodes":"5","size_leaf_vector":"1"}},{"base_weights":[-1.8672647E-3,4.0734425E-2,-1.22485265E-1,1.9541753E-2,-7.025913E-2],"categories":[],"categories_nodes":[],"categories_segments":[],"categories_sizes":[],"default_left":[0,0,0,0,0],"id":47,"left_children":[1,-1,3,-1,-1],"loss_changes":[1.0579684E-1,0E0,8.626853E-2,0E0,0E0],"parents":[2147483647,0,0,2,2],"right_children":[2,-1,4,-1,-1],"split_conditions":[9.406591E-2,4.0734425E-2,2.246215E-2,1.9541753E-2,-7.025913E-2],"split_indices":[13287,0,42497,0,0],"split_type":[0,0,0,0,0],"sum_hessian":[4.3704815E0,1.982429E0,2.3880525E0,1.046804E0,1.3412486E0],"tree_param":{"num_deleted":"0","num_feature":"50176","num_nodes":"5","size_leaf_vector":"1"}},{"base_weights":[3.9765867E-3,9.887847E-2,-4.9309317E-2,-2.2886232E-2,6.566586E-2],"categories":[],"categories_nodes":[],"categories_segments":[],"categories_sizes":[],"default_left":[0,0,0,0,0],"id":48,"left_children":[1,3,-1,-1,-1],"loss_changes":[9.88745E-2,9.9346064E-2,0E0,0E0,0E0],"parents":[2147483647,0,0,1,1],"right_children":[2,4,-1,-1,-1],"split_conditions":[1.8489601E-2,2.0433124E-3,-4.9309317E-2,-2.2886232E-2,6.566586E-2],"split_indices":[12048,15624,0,0,0],"split_type":[0,0,0,0,0],"sum_hessian":[4.171698E0,2.9316282E0,1.2400699E0,1.3400192E0,1.5916089E0],"tree_param":{"num_deleted":"0","num_feature":"50176","num_nodes":"5","size_leaf_vector":"1"}},{"base_weights":[-3.976586E-3,-9.887845E-2,4.9309302E-2,2.288626E-2,-6.5665886E-2],"categories":[],"categories_nodes":[],"categories_segments":[],"categories_sizes":[],"default_left":[0,0,0,0,0],"id":49,"left_children":[1,3,-1,-1,-1],"loss_changes":[9.8874465E-2,9.9346176E-2,0E0,0E0,0E0],"parents":[2147483647,0,0,1,1],"right_children":[2,4,-1,-1,-1],"split_conditions":[1.8489601E-2,2.0433124E-3,4.9309302E-2,2.288626E-2,-6.5665886E-2],"split_indices":[12048,15624,0,0,0],"split_type":[0,0,0,0,0],"sum_hessian":[4.1716986E0,2.9316285E0,1.2400701E0,1.3400195E0,1.591609E0],"tree_param":{"num_deleted":"0","num_feature":"50176","num_nodes":"5","size_leaf_vector":"1"}},{"base_weights":[2.1082694E-3,-4.350908E-2,1.067524E-1,5.8827646E-2,-1.5569199E-2],"categories":[],"categories_nodes":[],"categories_segments":[],"categories_sizes":[],"default_left":[0,0,0,0,0],"id":50,"left_children":[1,-1,3,-1,-1],"loss_changes":[9.194212E-2,0E0,5.947259E-2,0E0,0E0],"parents":[2147483647,0,0,2,2],"right_children":[2,-1,4,-1,-1],"split_conditions":[2.1132806E-2,-4.350908E-2,2.9378735E-2,5.8827646E-2,-1.5569199E-2],"split_indices":[10683,0,26802,0,0],"split_type":[0,0,0,0,0],"sum_hessian":[3.9658294E0,1.4878492E0,2.4779801E0,1.4342885E0,1.0436916E0],"tree_param":{"num_deleted":"0","num_feature":"50176","num_nodes":"5","size_leaf_vector":"1"}},{"base_weights":[-2.1081404E-3,4.3509137E-2,-1.0675236E-1,-5.882767E-2,1.5569241E-2],"categories":[],"categories_nodes":[],"categories_segments":[],"categories_sizes":[],"default_left":[0,0,0,0,0],"id":51,"left_children":[1,-1,3,-1,-1],"loss_changes":[9.194226E-2,0E0,5.947273E-2,0E0,0E0],"parents":[2147483647,0,0,2,2],"right_children":[2,-1,4,-1,-1],"split_conditions":[2.1132806E-2,4.3509137E-2,2.9378735E-2,-5.882767E-2,1.5569241E-2],"split_indices":[10683,0,26802,0,0],"split_type":[0,0,0,0,0],"sum_hessian":[3.965831E0,1.48785E0,2.477981E0,1.434289E0,1.0436921E0],"tree_param":{"num_deleted":"0","num_feature":"50176","num_nodes":"5","size_leaf_vector":"1"}},{"base_weights":[1.8301307E-3,4.2319857E-2,-1.03763685E-1,-6.0139593E-2,1.2764762E-2],"categories":[],"categories_nodes":[],"categories_segments":[],"categories_sizes":[],"default_left":[0,0,0,0,0],"id":52,"left_children":[1,-1,3,-1,-1],"loss_changes":[8.531647E-2,0E0,5.5363353E-2,0E0,0E0],"parents":[2147483647,0,0,2,2],"right_children":[2,-1,4,-1,-1],"split_conditions":[7.32134E-3,4.2319857E-2,6.1070148E-2,-6.0139593E-2,1.2764762E-2],"split_indices":[43011,0,2320,0,0],"split_type":[0,0,0,0,0],"sum_hessian":[3.8072834E0,1.4971752E0,2.3101082E0,1.1680214E0,1.1420866E0],"tree_param":{"num_deleted":"0","num_feature":"50176","num_nodes":"5","size_leaf_vector":"1"}},{"base_weights":[-1.8301251E-3,-4.2319864E-2,1.0376373E-1,6.0139604E-2,-1.2764759E-2],"categories":[],"categories_nodes":[],"categories_segments":[],"categories_sizes":[],"default_left":[0,0,0,0,0],"id":53,"left_children":[1,-1,3,-1,-1],"loss_changes":[8.531653E-2,0E0,5.536335E-2,0E0,0E0],"parents":[2147483647,0,0,2,2],"right_children":[2,-1,4,-1,-1],"split_conditions":[7.32134E-3,-4.2319864E-2,6.1070148E-2,6.0139604E-2,-1.2764759E-2],"split_indices":[43011,0,2320,0,0],"split_type":[0,0,0,0,0],"sum_hessian":[3.8072836E0,1.4971755E0,2.310108E0,1.1680218E0,1.1420863E0],"tree_param":{"num_deleted":"0","num_feature":"50176","num_nodes":"5","size_leaf_vector":"1"}},{"base_weights":[-1.2033793E-4,-3.9474636E-2,1.09477274E-1,6.291644E-2,-1.22526735E-2],"categories":[],"categories_nodes":[],"categories_segments":[],"categories_sizes":[],"default_left":[0,0,0,0,0],"id":54,"left_children":[1,-1,3,-1,-1],"loss_changes":[8.153503E-2,0E0,5.5078886E-2,0E0,0E0],"parents":[2147483647,0,0,2,2],"right_children":[2,-1,4,-1,-1],"split_conditions":[5.3292003E-2,-3.9474636E-2,1.2241837E-1,6.291644E-2,-1.22526735E-2],"split_indices":[10501,0,25688,0,0],"split_type":[0,0,0,0,0],"sum_hessian":[3.6592355E0,1.5724714E0,2.086764E0,1.0148294E0,1.0719347E0],"tree_param":{"num_deleted":"0","num_feature":"50176","num_nodes":"5","size_leaf_vector":"1"}},{"base_weights":[1.2031087E-4,3.9474614E-2,-1.0947726E-1,-6.291646E-2,1.2252712E-2],"categories":[],"categories_nodes":[],"categories_segments":[],"categories_sizes":[],"default_left":[0,0,0,0,0],"id":55,"left_children":[1,-1,3,-1,-1],"loss_changes":[8.153496E-2,0E0,5.5078965E-2,0E0,0E0],"parents":[2147483647,0,0,2,2],"right_children":[2,-1,4,-1,-1],"split_conditions":[5.3292003E-2,3.9474614E-2,1.2241837E-1,-6.291646E-2,1.2252712E-2],"split_indices":[10501,0,25688,0,0],"split_type":[0,0,0,0,0],"sum_hessian":[3.6592345E0,1.5724709E0,2.0867634E0,1.0148295E0,1.071934E0],"tree_param":{"num_deleted":"0","num_feature":"50176","num_nodes":"5","size_leaf_vector":"1"}},{"base_weights":[2.8530976E-3,-8.8800065E-2,4.5858685E-2,1.7861601E-2,-5.269387E-2],"categories":[],"categories_nodes":[],"categories_segments":[],"categories_sizes":[],"default_left":[0,0,0,0,0],"id":56,"left_children":[1,3,-1,-1,-1],"loss_changes":[7.5642526E-2,5.4707572E-2,0E0,0E0,0E0],"parents":[2147483647,0,0,1,1],"right_children":[2,4,-1,-1,-1],"split_conditions":[3.432194E-2,7.5038165E-2,4.5858685E-2,1.7861601E-2,-5.269387E-2],"split_indices":[32900,21858,0,0,0],"split_type":[0,0,0,0,0],"sum_hessian":[3.5144506E0,2.4348392E0,1.0796112E0,1.015218E0,1.4196212E0],"tree_param":{"num_deleted":"0","num_feature":"50176","num_nodes":"5","size_leaf_vector":"1"}},{"base_weights":[-2.853259E-3,8.879996E-2,-4.585871E-2,-1.7861675E-2,5.2693892E-2],"categories":[],"categories_nodes":[],"categories_segments":[],"categories_sizes":[],"default_left":[0,0,0,0,0],"id":57,"left_children":[1,3,-1,-1,-1],"loss_changes":[7.564254E-2,5.470775E-2,0E0,0E0,0E0],"parents":[2147483647,0,0,1,1],"right_children":[2,4,-1,-1,-1],"split_conditions":[3.432194E-2,7.5038165E-2,-4.585871E-2,-1.7861675E-2,5.2693892E-2],"split_indices":[32900,21858,0,0,0],"split_type":[0,0,0,0,0],"sum_hessian":[3.5144508E0,2.4348388E0,1.0796121E0,1.0152179E0,1.4196208E0],"tree_param":{"num_deleted":"0","num_feature":"50176","num_nodes":"5","size_leaf_vector":"1"}},{"base_weights":[4.3864194E-3,-9.032471E-2,4.3275326E-2,1.41596235E-2,-5.2151915E-2],"categories":[],"categories_nodes":[],"categories_segments":[],"categories_sizes":[],"default_left":[0,0,0,0,0],"id":58,"left_children":[1,3,-1,-1,-1],"loss_changes":[7.099427E-2,4.523333E-2,0E0,0E0,0E0],"parents":[2147483647,0,0,1,1],"right_children":[2,4,-1,-1,-1],"split_conditions":[1.1930997E-2,3.1305708E-2,4.3275326E-2,1.41596235E-2,-5.2151915E-2],"split_indices":[20077,28710,0,0,0],"split_type":[0,0,0,0,0],"sum_hessian":[3.3757813E0,2.2239826E0,1.1517988E0,1.004586E0,1.2193966E0],"tree_param":{"num_deleted":"0","num_feature":"50176","num_nodes":"5","size_leaf_vector":"1"}},{"base_weights":[-4.386468E-3,9.032465E-2,-4.327532E-2,-1.4159686E-2,5.2151944E-2],"categories":[],"categories_nodes":[],"categories_segments":[],"categories_sizes":[],"default_left":[0,0,0,0,0],"id":59,"left_children":[1,3,-1,-1,-1],"loss_changes":[7.099425E-2,4.5233488E-2,0E0,0E0,0E0],"parents":[2147483647,0,0,1,1],"right_children":[2,4,-1,-1,-1],"split_conditions":[1.1930997E-2,3.1305708E-2,-4.327532E-2,-1.4159686E-2,5.2151944E-2],"split_indices":[20077,28710,0,0,0],"split_type":[0,0,0,0,0],"sum_hessian":[3.3757825E0,2.223983E0,1.1517994E0,1.0045862E0,1.2193968E0],"tree_param":{"num_deleted":"0","num_feature":"50176","num_nodes":"5","size_leaf_vector":"1"}},{"base_weights":[4.2127804E-3,3.1844366E-2,-3.5577476E-2],"categories":[],"categories_nodes":[],"categories_segments":[],"categories_sizes":[],"default_left":[0,0,0],"id":60,"left_children":[1,-1,-1],"loss_changes":[6.5831356E-2,0E0,0E0],"parents":[2147483647,0,0],"right_children":[2,-1,-1],"split_conditions":[6.8618976E-2,3.1844366E-2,-3.5577476E-2],"split_indices":[46982,0,0],"split_type":[0,0,0],"sum_hessian":[3.2532988E0,1.8518144E0,1.4014843E0],"tree_param":{"num_deleted":"0","num_feature":"50176","num_nodes":"3","size_leaf_vector":"1"}},{"base_weights":[-4.2128046E-3,-3.1844378E-2,3.557747E-2],"categories":[],"categories_nodes":[],"categories_segments":[],"categories_sizes":[],"default_left":[0,0,0],"id":61,"left_children":[1,-1,-1],"loss_changes":[6.583136E-2,0E0,0E0],"parents":[2147483647,0,0],"right_children":[2,-1,-1],"split_conditions":[6.8618976E-2,-3.1844378E-2,3.557747E-2],"split_indices":[46982,0,0],"split_type":[0,0,0],"sum_hessian":[3.253299E0,1.8518143E0,1.4014847E0],"tree_param":{"num_deleted":"0","num_feature":"50176","num_nodes":"3","size_leaf_vector":"1"}},{"base_weights":[2.0820722E-3,-2.937472E-2,3.691873E-2],"categories":[],"categories_nodes":[],"categories_segments":[],"categories_sizes":[],"default_left":[0,0,0],"id":62,"left_children":[1,-1,-1],"loss_changes":[6.266769E-2,0E0,0E0],"parents":[2147483647,0,0],"right_children":[2,-1,-1],"split_conditions":[2.0255795E-2,-2.937472E-2,3.691873E-2],"split_indices":[2817,0,0],"split_type":[0,0,0],"sum_hessian":[3.184072E0,1.8475798E0,1.3364922E0],"tree_param":{"num_deleted":"0","num_feature":"50176","num_nodes":"3","size_leaf_vector":"1"}},{"base_weights":[-2.0820147E-3,2.937471E-2,-3.691869E-2],"categories":[],"categories_nodes":[],"categories_segments":[],"categories_sizes":[],"default_left":[0,0,0],"id":63,"left_children":[1,-1,-1],"loss_changes":[6.26676E-2,0E0,0E0],"parents":[2147483647,0,0],"right_children":[2,-1,-1],"split_conditions":[2.0255795E-2,2.937471E-2,-3.691869E-2],"split_indices":[2817,0,0],"split_type":[0,0,0],"sum_hessian":[3.1840734E0,1.8475808E0,1.3364927E0],"tree_param":{"num_deleted":"0","num_feature":"50176","num_nodes":"3","size_leaf_vector":"1"}},{"base_weights":[3.3811498E-3,-3.5251413E-2,3.0099949E-2],"categories":[],"categories_nodes":[],"categories_segments":[],"categories_sizes":[],"default_left":[0,0,0],"id":64,"left_children":[1,-1,-1],"loss_changes":[6.005549E-2,0E0,0E0],"parents":[2147483647,0,0],"right_children":[2,-1,-1],"split_conditions":[7.75236E-2,-3.5251413E-2,3.0099949E-2],"split_indices":[21409,0,0],"split_type":[0,0,0],"sum_hessian":[3.118204E0,1.2934549E0,1.8247491E0],"tree_param":{"num_deleted":"0","num_feature":"50176","num_nodes":"3","size_leaf_vector":"1"}},{"base_weights":[-3.381007E-3,3.5251416E-2,-3.009989E-2],"categories":[],"categories_nodes":[],"categories_segments":[],"categories_sizes":[],"default_left":[0,0,0],"id":65,"left_children":[1,-1,-1],"loss_changes":[6.005538E-2,0E0,0E0],"parents":[2147483647,0,0],"right_children":[2,-1,-1],"split_conditions":[7.75236E-2,3.5251416E-2,-3.009989E-2],"split_indices":[21409,0,0],"split_type":[0,0,0],"sum_hessian":[3.1182039E0,1.2934548E0,1.8247491E0],"tree_param":{"num_deleted":"0","num_feature":"50176","num_nodes":"3","size_leaf_vector":"1"}},{"base_weights":[1.0980103E-3,3.438236E-2,-2.9934091E-2],"categories":[],"categories_nodes":[],"categories_segments":[],"categories_sizes":[],"default_left":[0,0,0],"id":66,"left_children":[1,-1,-1],"loss_changes":[5.787038E-2,0E0,0E0],"parents":[2147483647,0,0],"right_children":[2,-1,-1],"split_conditions":[6.6290036E-2,3.438236E-2,-2.9934091E-2],"split_indices":[17996,0,0],"split_type":[0,0,0],"sum_hessian":[3.0551972E0,1.3735534E0,1.6816438E0],"tree_param":{"num_deleted":"0","num_feature":"50176","num_nodes":"3","size_leaf_vector":"1"}},{"base_weights":[-1.0980043E-3,-3.4382384E-2,2.9934108E-2],"categories":[],"categories_nodes":[],"categories_segments":[],"categories_sizes":[],"default_left":[0,0,0],"id":67,"left_children":[1,-1,-1],"loss_changes":[5.787047E-2,0E0,0E0],"parents":[2147483647,0,0],"right_children":[2,-1,-1],"split_conditions":[6.6290036E-2,-3.4382384E-2,2.9934108E-2],"split_indices":[17996,0,0],"split_type":[0,0,0],"sum_hessian":[3.0551987E0,1.3735538E0,1.6816449E0],"tree_param":{"num_deleted":"0","num_feature":"50176","num_nodes":"3","size_leaf_vector":"1"}},{"base_weights":[1.9327669E-3,3.0030726E-2,-3.3750232E-2],"categories":[],"categories_nodes":[],"categories_segments":[],"categories_sizes":[],"default_left":[0,0,0],"id":68,"left_children":[1,-1,-1],"loss_changes":[5.613067E-2,0E0,0E0],"parents":[2147483647,0,0],"right_children":[2,-1,-1],"split_conditions":[4.8495647E-3,3.0030726E-2,-3.3750232E-2],"split_indices":[27851,0,0],"split_type":[0,0,0],"sum_hessian":[2.9940774E0,1.6789683E0,1.3151093E0],"tree_param":{"num_deleted":"0","num_feature":"50176","num_nodes":"3","size_leaf_vector":"1"}},{"base_weights":[-1.9326542E-3,-3.0030686E-2,3.3750247E-2],"categories":[],"categories_nodes":[],"categories_segments":[],"categories_sizes":[],"default_left":[0,0,0],"id":69,"left_children":[1,-1,-1],"loss_changes":[5.613063E-2,0E0,0E0],"parents":[2147483647,0,0],"right_children":[2,-1,-1],"split_conditions":[4.8495647E-3,-3.0030686E-2,3.3750247E-2],"split_indices":[27851,0,0],"split_type":[0,0,0],"sum_hessian":[2.994078E0,1.6789687E0,1.3151094E0],"tree_param":{"num_deleted":"0","num_feature":"50176","num_nodes":"3","size_leaf_vector":"1"}},{"base_weights":[4.02254E-4,-2.7161008E-2,3.852222E-2],"categories":[],"categories_nodes":[],"categories_segments":[],"categories_sizes":[],"default_left":[0,0,0],"id":70,"left_children":[1,-1,-1],"loss_changes":[5.7426766E-2,0E0,0E0],"parents":[2147483647,0,0],"right_children":[2,-1,-1],"split_conditions":[6.134722E-2,-2.7161008E-2,3.852222E-2],"split_indices":[2377,0,0],"split_type":[0,0,0],"sum_hessian":[2.9345887E0,1.886833E0,1.0477557E0],"tree_param":{"num_deleted":"0","num_feature":"50176","num_nodes":"3","size_leaf_vector":"1"}},{"base_weights":[-4.0246174E-4,2.7160956E-2,-3.8522255E-2],"categories":[],"categories_nodes":[],"categories_segments":[],"categories_sizes":[],"default_left":[0,0,0],"id":71,"left_children":[1,-1,-1],"loss_changes":[5.7426732E-2,0E0,0E0],"parents":[2147483647,0,0],"right_children":[2,-1,-1],"split_conditions":[6.134722E-2,2.7160956E-2,-3.8522255E-2],"split_indices":[2377,0,0],"split_type":[0,0,0],"sum_hessian":[2.9345887E0,1.8868326E0,1.0477562E0],"tree_param":{"num_deleted":"0","num_feature":"50176","num_nodes":"3","size_leaf_vector":"1"}},{"base_weights":[3.313615E-3,-2.7305104E-2,3.615627E-2],"categories":[],"categories_nodes":[],"categories_segments":[],"categories_sizes":[],"default_left":[0,0,0],"id":72,"left_children":[1,-1,-1],"loss_changes":[5.3799853E-2,0E0,0E0],"parents":[2147483647,0,0],"right_children":[2,-1,-1],"split_conditions":[2.175749E-2,-2.7305104E-2,3.615627E-2],"split_indices":[40168,0,0],"split_type":[0,0,0],"sum_hessian":[2.873868E0,1.7161394E0,1.1577287E0],"tree_param":{"num_deleted":"0","num_feature":"50176","num_nodes":"3","size_leaf_vector":"1"}},{"base_weights":[-3.3136145E-3,2.7305119E-2,-3.6156286E-2],"categories":[],"categories_nodes":[],"categories_segments":[],"categories_sizes":[],"default_left":[0,0,0],"id":73,"left_children":[1,-1,-1],"loss_changes":[5.379992E-2,0E0,0E0],"parents":[2147483647,0,0],"right_children":[2,-1,-1],"split_conditions":[2.175749E-2,2.7305119E-2,-3.6156286E-2],"split_indices":[40168,0,0],"split_type":[0,0,0],"sum_hessian":[2.87387E0,1.7161403E0,1.1577296E0],"tree_param":{"num_deleted":"0","num_feature":"50176","num_nodes":"3","size_leaf_vector":"1"}},{"base_weights":[4.74995E-3,3.3089537E-2,-2.9522093E-2],"categories":[],"categories_nodes":[],"categories_segments":[],"categories_sizes":[],"default_left":[0,0,0],"id":74,"left_children":[1,-1,-1],"loss_changes":[5.240727E-2,0E0,0E0],"parents":[2147483647,0,0],"right_children":[2,-1,-1],"split_conditions":[7.764577E-2,3.3089537E-2,-2.9522093E-2],"split_indices":[44783,0,0],"split_type":[0,0,0],"sum_hessian":[2.816395E0,1.3578424E0,1.4585525E0],"tree_param":{"num_deleted":"0","num_feature":"50176","num_nodes":"3","size_leaf_vector":"1"}},{"base_weights":[-4.7498327E-3,-3.3089556E-2,2.9522149E-2],"categories":[],"categories_nodes":[],"categories_segments":[],"categories_sizes":[],"default_left":[0,0,0],"id":75,"left_children":[1,-1,-1],"loss_changes":[5.240741E-2,0E0,0E0],"parents":[2147483647,0,0],"right_children":[2,-1,-1],"split_conditions":[7.764577E-2,-3.3089556E-2,2.9522149E-2],"split_indices":[44783,0,0],"split_type":[0,0,0],"sum_hessian":[2.8163967E0,1.3578428E0,1.4585539E0],"tree_param":{"num_deleted":"0","num_feature":"50176","num_nodes":"3","size_leaf_vector":"1"}},{"base_weights":[4.3597436E-3,-2.637433E-2,3.5276003E-2],"categories":[],"categories_nodes":[],"categories_segments":[],"categories_sizes":[],"default_left":[0,0,0],"id":76,"left_children":[1,-1,-1],"loss_changes":[4.9625304E-2,0E0,0E0],"parents":[2147483647,0,0],"right_children":[2,-1,-1],"split_conditions":[1.7962107E-2,-2.637433E-2,3.5276003E-2],"split_indices":[40764,0,0],"split_type":[0,0,0],"sum_hessian":[2.76034E0,1.6440657E0,1.1162741E0],"tree_param":{"num_deleted":"0","num_feature":"50176","num_nodes":"3","size_leaf_vector":"1"}},{"base_weights":[-4.3598446E-3,2.6374293E-2,-3.5275996E-2],"categories":[],"categories_nodes":[],"categories_segments":[],"categories_sizes":[],"default_left":[0,0,0],"id":77,"left_children":[1,-1,-1],"loss_changes":[4.9625214E-2,0E0,0E0],"parents":[2147483647,0,0],"right_children":[2,-1,-1],"split_conditions":[1.7962107E-2,2.6374293E-2,-3.5275996E-2],"split_indices":[40764,0,0],"split_type":[0,0,0],"sum_hessian":[2.7603385E0,1.6440643E0,1.1162744E0],"tree_param":{"num_deleted":"0","num_feature":"50176","num_nodes":"3","size_leaf_vector":"1"}},{"base_weights":[5.5703935E-3,-3.3678442E-2,2.724173E-2],"categories":[],"categories_nodes":[],"categories_segments":[],"categories_sizes":[],"default_left":[0,0,0],"id":78,"left_children":[1,-1,-1],"loss_changes":[4.7429796E-2,0E0,0E0],"parents":[2147483647,0,0],"right_children":[2,-1,-1],"split_conditions":[2.2119768E-2,-3.3678442E-2,2.724173E-2],"split_indices":[39418,0,0],"split_type":[0,0,0],"sum_hessian":[2.7074745E0,1.0033449E0,1.7041295E0],"tree_param":{"num_deleted":"0","num_feature":"50176","num_nodes":"3","size_leaf_vector":"1"}},{"base_weights":[-5.570343E-3,3.3678446E-2,-2.7241707E-2],"categories":[],"categories_nodes":[],"categories_segments":[],"categories_sizes":[],"default_left":[0,0,0],"id":79,"left_children":[1,-1,-1],"loss_changes":[4.7429778E-2,0E0,0E0],"parents":[2147483647,0,0],"right_children":[2,-1,-1],"split_conditions":[2.2119768E-2,3.3678446E-2,-2.7241707E-2],"split_indices":[39418,0,0],"split_type":[0,0,0],"sum_hessian":[2.7074757E0,1.0033453E0,1.7041303E0],"tree_param":{"num_deleted":"0","num_feature":"50176","num_nodes":"3","size_leaf_vector":"1"}},{"base_weights":[2.155752E-3,2.9656127E-2,-2.975563E-2],"categories":[],"categories_nodes":[],"categories_segments":[],"categories_sizes":[],"default_left":[0,0,0],"id":80,"left_children":[1,-1,-1],"loss_changes":[4.564353E-2,0E0,0E0],"parents":[2147483647,0,0],"right_children":[2,-1,-1],"split_conditions":[1.1319155E-1,2.9656127E-2,-2.975563E-2],"split_indices":[22413,0,0],"split_type":[0,0,0],"sum_hessian":[2.6571984E0,1.3723096E0,1.2848889E0],"tree_param":{"num_deleted":"0","num_feature":"50176","num_nodes":"3","size_leaf_vector":"1"}},{"base_weights":[-2.155781E-3,-2.9656129E-2,2.9755605E-2],"categories":[],"categories_nodes":[],"categories_segments":[],"categories_sizes":[],"default_left":[0,0,0],"id":81,"left_children":[1,-1,-1],"loss_changes":[4.564349E-2,0E0,0E0],"parents":[2147483647,0,0],"right_children":[2,-1,-1],"split_conditions":[1.1319155E-1,-2.9656129E-2,2.9755605E-2],"split_indices":[22413,0,0],"split_type":[0,0,0],"sum_hessian":[2.6571975E0,1.3723085E0,1.2848889E0],"tree_param":{"num_deleted":"0","num_feature":"50176","num_nodes":"3","size_leaf_vector":"1"}},{"base_weights":[1.504892E-3,-2.758383E-2,3.3484966E-2],"categories":[],"categories_nodes":[],"categories_segments":[],"categories_sizes":[],"default_left":[0,0,0],"id":82,"left_children":[1,-1,-1],"loss_changes":[4.7395032E-2,0E0,0E0],"parents":[2147483647,0,0],"right_children":[2,-1,-1],"split_conditions":[1.1686831E-1,-2.758383E-2,3.3484966E-2],"split_indices":[36100,0,0],"split_type":[0,0,0],"sum_hessian":[2.608569E0,1.5002722E0,1.1082966E0],"tree_param":{"num_deleted":"0","num_feature":"50176","num_nodes":"3","size_leaf_vector":"1"}},{"base_weights":[-1.5047857E-3,2.7583836E-2,-3.3484902E-2],"categories":[],"categories_nodes":[],"categories_segments":[],"categories_sizes":[],"default_left":[0,0,0],"id":83,"left_children":[1,-1,-1],"loss_changes":[4.739495E-2,0E0,0E0],"parents":[2147483647,0,0],"right_children":[2,-1,-1],"split_conditions":[1.1686831E-1,2.7583836E-2,-3.3484902E-2],"split_indices":[36100,0,0],"split_type":[0,0,0],"sum_hessian":[2.6085684E0,1.5002716E0,1.1082969E0],"tree_param":{"num_deleted":"0","num_feature":"50176","num_nodes":"3","size_leaf_vector":"1"}},{"base_weights":[2.7732677E-3,2.8319877E-2,-2.9778313E-2],"categories":[],"categories_nodes":[],"categories_segments":[],"categories_sizes":[],"default_left":[0,0,0],"id":84,"left_children":[1,-1,-1],"loss_changes":[4.2637914E-2,0E0,0E0],"parents":[2147483647,0,0],"right_children":[2,-1,-1],"split_conditions":[2.9412044E-2,2.8319877E-2,-2.9778313E-2],"split_indices":[26802,0,0],"split_type":[0,0,0],"sum_hessian":[2.5584142E0,1.3873793E0,1.171035E0],"tree_param":{"num_deleted":"0","num_feature":"50176","num_nodes":"3","size_leaf_vector":"1"}},{"base_weights":[-2.7731499E-3,-2.8319838E-2,2.9778324E-2],"categories":[],"categories_nodes":[],"categories_segments":[],"categories_sizes":[],"default_left":[0,0,0],"id":85,"left_children":[1,-1,-1],"loss_changes":[4.2637885E-2,0E0,0E0],"parents":[2147483647,0,0],"right_children":[2,-1,-1],"split_conditions":[2.9412044E-2,-2.8319838E-2,2.9778324E-2],"split_indices":[26802,0,0],"split_type":[0,0,0],"sum_hessian":[2.5584154E0,1.3873799E0,1.1710355E0],"tree_param":{"num_deleted":"0","num_feature":"50176","num_nodes":"3","size_leaf_vector":"1"}},{"base_weights":[1.5460439E-3,-3.0815681E-2,2.7460894E-2],"categories":[],"categories_nodes":[],"categories_segments":[],"categories_sizes":[],"default_left":[0,0,0],"id":86,"left_children":[1,-1,-1],"loss_changes":[4.236165E-2,0E0,0E0],"parents":[2147483647,0,0],"right_children":[2,-1,-1],"split_conditions":[1.1505801E-1,-3.0815681E-2,2.7460894E-2],"split_indices":[20842,0,0],"split_type":[0,0,0],"sum_hessian":[2.5127068E0,1.0985055E0,1.4142013E0],"tree_param":{"num_deleted":"0","num_feature":"50176","num_nodes":"3","size_leaf_vector":"1"}},{"base_weights":[-1.5458266E-3,3.0815741E-2,-2.7460855E-2],"categories":[],"categories_nodes":[],"categories_segments":[],"categories_sizes":[],"default_left":[0,0,0],"id":87,"left_children":[1,-1,-1],"loss_changes":[4.236168E-2,0E0,0E0],"parents":[2147483647,0,0],"right_children":[2,-1,-1],"split_conditions":[1.1505801E-1,3.0815741E-2,-2.7460855E-2],"split_indices":[20842,0,0],"split_type":[0,0,0],"sum_hessian":[2.512706E0,1.0985055E0,1.4142007E0],"tree_param":{"num_deleted":"0","num_feature":"50176","num_nodes":"3","size_leaf_vector":"1"}},{"base_weights":[1.08297005E-4,2.9907381E-2,-2.6741285E-2],"categories":[],"categories_nodes":[],"categories_segments":[],"categories_sizes":[],"default_left":[0,0,0],"id":88,"left_children":[1,-1,-1],"loss_changes":[3.9705124E-2,0E0,0E0],"parents":[2147483647,0,0],"right_children":[2,-1,-1],"split_conditions":[3.7958458E-2,2.9907381E-2,-2.6741285E-2],"split_indices":[39572,0,0],"split_type":[0,0,0],"sum_hessian":[2.467716E0,1.1109965E0,1.3567195E0],"tree_param":{"num_deleted":"0","num_feature":"50176","num_nodes":"3","size_leaf_vector":"1"}},{"base_weights":[-1.0842977E-4,-2.9907454E-2,2.6741296E-2],"categories":[],"categories_nodes":[],"categories_segments":[],"categories_sizes":[],"default_left":[0,0,0],"id":89,"left_children":[1,-1,-1],"loss_changes":[3.9705254E-2,0E0,0E0],"parents":[2147483647,0,0],"right_children":[2,-1,-1],"split_conditions":[3.7958458E-2,-2.9907454E-2,2.6741296E-2],"split_indices":[39572,0,0],"split_type":[0,0,0],"sum_hessian":[2.4677172E0,1.1109971E0,1.3567201E0],"tree_param":{"num_deleted":"0","num_feature":"50176","num_nodes":"3","size_leaf_vector":"1"}},{"base_weights":[1.0223652E-3,-2.6677137E-2,2.9964576E-2],"categories":[],"categories_nodes":[],"categories_segments":[],"categories_sizes":[],"default_left":[0,0,0],"id":90,"left_children":[1,-1,-1],"loss_changes":[3.9340843E-2,0E0,0E0],"parents":[2147483647,0,0],"right_children":[2,-1,-1],"split_conditions":[6.0383193E-2,-2.6677137E-2,2.9964576E-2],"split_indices":[14590,0,0],"split_type":[0,0,0],"sum_hessian":[2.4254205E0,1.3225858E0,1.1028347E0],"tree_param":{"num_deleted":"0","num_feature":"50176","num_nodes":"3","size_leaf_vector":"1"}},{"base_weights":[-1.0222408E-3,2.667716E-2,-2.9964553E-2],"categories":[],"categories_nodes":[],"categories_segments":[],"categories_sizes":[],"default_left":[0,0,0],"id":91,"left_children":[1,-1,-1],"loss_changes":[3.9340835E-2,0E0,0E0],"parents":[2147483647,0,0],"right_children":[2,-1,-1],"split_conditions":[6.0383193E-2,2.667716E-2,-2.9964553E-2],"split_indices":[14590,0,0],"split_type":[0,0,0],"sum_hessian":[2.4254198E0,1.3225859E0,1.1028339E0],"tree_param":{"num_deleted":"0","num_feature":"50176","num_nodes":"3","size_leaf_vector":"1"}},{"base_weights":[1.7192765E-3,2.6139406E-2,-2.9510718E-2],"categories":[],"categories_nodes":[],"categories_segments":[],"categories_sizes":[],"default_left":[0,0,0],"id":92,"left_children":[1,-1,-1],"loss_changes":[3.7495296E-2,0E0,0E0],"parents":[2147483647,0,0],"right_children":[2,-1,-1],"split_conditions":[1.321631E-4,2.6139406E-2,-2.9510718E-2],"split_indices":[29657,0,0],"split_type":[0,0,0],"sum_hessian":[2.3834496E0,1.3558593E0,1.0275902E0],"tree_param":{"num_deleted":"0","num_feature":"50176","num_nodes":"3","size_leaf_vector":"1"}},{"base_weights":[-1.719282E-3,-2.6139392E-2,2.951071E-2],"categories":[],"categories_nodes":[],"categories_segments":[],"categories_sizes":[],"default_left":[0,0,0],"id":93,"left_children":[1,-1,-1],"loss_changes":[3.7495263E-2,0E0,0E0],"parents":[2147483647,0,0],"right_children":[2,-1,-1],"split_conditions":[1.321631E-4,-2.6139392E-2,2.951071E-2],"split_indices":[29657,0,0],"split_type":[0,0,0],"sum_hessian":[2.3834488E0,1.3558595E0,1.0275894E0],"tree_param":{"num_deleted":"0","num_feature":"50176","num_nodes":"3","size_leaf_vector":"1"}},{"base_weights":[1.9074035E-4,-2.9531678E-2,2.6418045E-2],"categories":[],"categories_nodes":[],"categories_segments":[],"categories_sizes":[],"default_left":[0,0,0],"id":94,"left_children":[1,-1,-1],"loss_changes":[3.7644077E-2,0E0,0E0],"parents":[2147483647,0,0],"right_children":[2,-1,-1],"split_conditions":[5.4473E-2,-2.9531678E-2,2.6418045E-2],"split_indices":[9262,0,0],"split_type":[0,0,0],"sum_hessian":[2.3433828E0,1.0474162E0,1.2959667E0],"tree_param":{"num_deleted":"0","num_feature":"50176","num_nodes":"3","size_leaf_vector":"1"}},{"base_weights":[-1.9081496E-4,2.9531686E-2,-2.6418066E-2],"categories":[],"categories_nodes":[],"categories_segments":[],"categories_sizes":[],"default_left":[0,0,0],"id":95,"left_children":[1,-1,-1],"loss_changes":[3.7644114E-2,0E0,0E0],"parents":[2147483647,0,0],"right_children":[2,-1,-1],"split_conditions":[5.4473E-2,2.9531686E-2,-2.6418066E-2],"split_indices":[9262,0,0],"split_type":[0,0,0],"sum_hessian":[2.3433836E0,1.0474159E0,1.2959678E0],"tree_param":{"num_deleted":"0","num_feature":"50176","num_nodes":"3","size_leaf_vector":"1"}},{"base_weights":[-8.265652E-4,2.815409E-2,-2.5918826E-2],"categories":[],"categories_nodes":[],"categories_segments":[],"categories_sizes":[],"default_left":[0,0,0],"id":96,"left_children":[1,-1,-1],"loss_changes":[3.4867205E-2,0E0,0E0],"parents":[2147483647,0,0],"right_children":[2,-1,-1],"split_conditions":[4.33387E-2,2.815409E-2,-2.5918826E-2],"split_indices":[21714,0,0],"split_type":[0,0,0],"sum_hessian":[2.303128E0,1.0474752E0,1.2556529E0],"tree_param":{"num_deleted":"0","num_feature":"50176","num_nodes":"3","size_leaf_vector":"1"}},{"base_weights":[8.267752E-4,-2.8154021E-2,2.591886E-2],"categories":[],"categories_nodes":[],"categories_segments":[],"categories_sizes":[],"default_left":[0,0,0],"id":97,"left_children":[1,-1,-1],"loss_changes":[3.4867153E-2,0E0,0E0],"parents":[2147483647,0,0],"right_children":[2,-1,-1],"split_conditions":[4.33387E-2,-2.8154021E-2,2.591886E-2],"split_indices":[21714,0,0],"split_type":[0,0,0],"sum_hessian":[2.3031275E0,1.0474751E0,1.2556523E0],"tree_param":{"num_deleted":"0","num_feature":"50176","num_nodes":"3","size_leaf_vector":"1"}},{"base_weights":[1.1216255E-4,-2.67689E-2,2.7185109E-2],"categories":[],"categories_nodes":[],"categories_segments":[],"categories_sizes":[],"default_left":[0,0,0],"id":98,"left_children":[1,-1,-1],"loss_changes":[3.4490585E-2,0E0,0E0],"parents":[2147483647,0,0],"right_children":[2,-1,-1],"split_conditions":[4.8413858E-2,-2.67689E-2,2.7185109E-2],"split_indices":[46824,0,0],"split_type":[0,0,0],"sum_hessian":[2.2655563E0,1.147194E0,1.1183622E0],"tree_param":{"num_deleted":"0","num_feature":"50176","num_nodes":"3","size_leaf_vector":"1"}},{"base_weights":[-1.120477E-4,2.6768968E-2,-2.718512E-2],"categories":[],"categories_nodes":[],"categories_segments":[],"categories_sizes":[],"default_left":[0,0,0],"id":99,"left_children":[1,-1,-1],"loss_changes":[3.449068E-2,0E0,0E0],"parents":[2147483647,0,0],"right_children":[2,-1,-1],"split_conditions":[4.8413858E-2,2.6768968E-2,-2.718512E-2],"split_indices":[46824,0,0],"split_type":[0,0,0],"sum_hessian":[2.2655547E0,1.1471931E0,1.1183615E0],"tree_param":{"num_deleted":"0","num_feature":"50176","num_nodes":"3","size_leaf_vector":"1"}},{"base_weights":[2.1089178E-4,2.5654817E-2,-2.7818544E-2],"categories":[],"categories_nodes":[],"categories_segments":[],"categories_sizes":[],"default_left":[0,0,0],"id":100,"left_children":[1,-1,-1],"loss_changes":[3.3527773E-2,0E0,0E0],"parents":[2147483647,0,0],"right_children":[2,-1,-1],"split_conditions":[7.5586885E-2,2.5654817E-2,-2.7818544E-2],"split_indices":[18928,0,0],"split_type":[0,0,0],"sum_hessian":[2.228725E0,1.2037374E0,1.0249876E0],"tree_param":{"num_deleted":"0","num_feature":"50176","num_nodes":"3","size_leaf_vector":"1"}},{"base_weights":[-2.1117854E-4,-2.5654912E-2,2.7818525E-2],"categories":[],"categories_nodes":[],"categories_segments":[],"categories_sizes":[],"default_left":[0,0,0],"id":101,"left_children":[1,-1,-1],"loss_changes":[3.3527877E-2,0E0,0E0],"parents":[2147483647,0,0],"right_children":[2,-1,-1],"split_conditions":[7.5586885E-2,-2.5654912E-2,2.7818525E-2],"split_indices":[18928,0,0],"split_type":[0,0,0],"sum_hessian":[2.2287261E0,1.2037386E0,1.0249876E0],"tree_param":{"num_deleted":"0","num_feature":"50176","num_nodes":"3","size_leaf_vector":"1"}},{"base_weights":[-5.405799E-4,-2.6074493E-2,2.7119046E-2],"categories":[],"categories_nodes":[],"categories_segments":[],"categories_sizes":[],"default_left":[0,0,0],"id":102,"left_children":[1,-1,-1],"loss_changes":[3.2933123E-2,0E0,0E0],"parents":[2147483647,0,0],"right_children":[2,-1,-1],"split_conditions":[7.3489316E-2,-2.6074493E-2,2.7119046E-2],"split_indices":[6062,0,0],"split_type":[0,0,0],"sum_hessian":[2.192535E0,1.1471648E0,1.0453702E0],"tree_param":{"num_deleted":"0","num_feature":"50176","num_nodes":"3","size_leaf_vector":"1"}},{"base_weights":[5.4064055E-4,2.6074493E-2,-2.7119018E-2],"categories":[],"categories_nodes":[],"categories_segments":[],"categories_sizes":[],"default_left":[0,0,0],"id":103,"left_children":[1,-1,-1],"loss_changes":[3.2933097E-2,0E0,0E0],"parents":[2147483647,0,0],"right_children":[2,-1,-1],"split_conditions":[7.3489316E-2,2.6074493E-2,-2.7119018E-2],"split_indices":[6062,0,0],"split_type":[0,0,0],"sum_hessian":[2.192536E0,1.1471654E0,1.0453708E0],"tree_param":{"num_deleted":"0","num_feature":"50176","num_nodes":"3","size_leaf_vector":"1"}},{"base_weights":[-4.574477E-5,2.641586E-2,-2.4863502E-2],"categories":[],"categories_nodes":[],"categories_segments":[],"categories_sizes":[],"default_left":[0,0,0],"id":104,"left_children":[1,-1,-1],"loss_changes":[3.0335566E-2,0E0,0E0],"parents":[2147483647,0,0],"right_children":[2,-1,-1],"split_conditions":[3.8167417E-2,2.641586E-2,-2.4863502E-2],"split_indices":[14904,0,0],"split_type":[0,0,0],"sum_hessian":[2.1569843E0,1.014726E0,1.1422584E0],"tree_param":{"num_deleted":"0","num_feature":"50176","num_nodes":"3","size_leaf_vector":"1"}},{"base_weights":[4.5877852E-5,-2.6415844E-2,2.4863545E-2],"categories":[],"categories_nodes":[],"categories_segments":[],"categories_sizes":[],"default_left":[0,0,0],"id":105,"left_children":[1,-1,-1],"loss_changes":[3.0335596E-2,0E0,0E0],"parents":[2147483647,0,0],"right_children":[2,-1,-1],"split_conditions":[3.8167417E-2,-2.6415844E-2,2.4863545E-2],"split_indices":[14904,0,0],"split_type":[0,0,0],"sum_hessian":[2.1569848E0,1.0147262E0,1.1422586E0],"tree_param":{"num_deleted":"0","num_feature":"50176","num_nodes":"3","size_leaf_vector":"1"}},{"base_weights":[4.7357165E-4,-2.5387285E-2,2.508417E-2],"categories":[],"categories_nodes":[],"categories_segments":[],"categories_sizes":[],"default_left":[0,0,0],"id":106,"left_children":[1,-1,-1],"loss_changes":[2.9180314E-2,0E0,0E0],"parents":[2147483647,0,0],"right_children":[2,-1,-1],"split_conditions":[6.1455827E-2,-2.5387285E-2,2.508417E-2],"split_indices":[32154,0,0],"split_type":[0,0,0],"sum_hessian":[2.12429E0,1.0409658E0,1.0833242E0],"tree_param":{"num_deleted":"0","num_feature":"50176","num_nodes":"3","size_leaf_vector":"1"}},{"base_weights":[-4.7340614E-4,2.538729E-2,-2.5084095E-2],"categories":[],"categories_nodes":[],"categories_segments":[],"categories_sizes":[],"default_left":[0,0,0],"id":107,"left_children":[1,-1,-1],"loss_changes":[2.9180221E-2,0E0,0E0],"parents":[2147483647,0,0],"right_children":[2,-1,-1],"split_conditions":[6.1455827E-2,2.538729E-2,-2.5084095E-2],"split_indices":[32154,0,0],"split_type":[0,0,0],"sum_hessian":[2.1242883E0,1.0409648E0,1.0833235E0],"tree_param":{"num_deleted":"0","num_feature":"50176","num_nodes":"3","size_leaf_vector":"1"}},{"base_weights":[2.359881E-4,-2.579887E-2,2.4771841E-2],"categories":[],"categories_nodes":[],"categories_segments":[],"categories_sizes":[],"default_left":[0,0,0],"id":108,"left_children":[1,-1,-1],"loss_changes":[2.9060405E-2,0E0,0E0],"parents":[2147483647,0,0],"right_children":[2,-1,-1],"split_conditions":[1.7847253E-2,-2.579887E-2,2.4771841E-2],"split_indices":[43498,0,0],"split_type":[0,0,0],"sum_hessian":[2.0928433E0,1.0005316E0,1.0923119E0],"tree_param":{"num_deleted":"0","num_feature":"50176","num_nodes":"3","size_leaf_vector":"1"}},{"base_weights":[-2.358708E-4,2.5798837E-2,-2.4771744E-2],"categories":[],"categories_nodes":[],"categories_segments":[],"categories_sizes":[],"default_left":[0,0,0],"id":109,"left_children":[1,-1,-1],"loss_changes":[2.9060245E-2,0E0,0E0],"parents":[2147483647,0,0],"right_children":[2,-1,-1],"split_conditions":[1.7847253E-2,2.5798837E-2,-2.4771744E-2],"split_indices":[43498,0,0],"split_type":[0,0,0],"sum_hessian":[2.092842E0,1.0005304E0,1.0923119E0],"tree_param":{"num_deleted":"0","num_feature":"50176","num_nodes":"3","size_leaf_vector":"1"}},{"base_weights":[-1.7380797E-4,2.5064567E-2,-2.4490537E-2],"categories":[],"categories_nodes":[],"categories_segments":[],"categories_sizes":[],"default_left":[0,0,0],"id":110,"left_children":[1,-1,-1],"loss_changes":[2.769852E-2,0E0,0E0],"parents":[2147483647,0,0],"right_children":[2,-1,-1],"split_conditions":[7.764577E-2,2.5064567E-2,-2.4490537E-2],"split_indices":[44783,0,0],"split_type":[0,0,0],"sum_hessian":[2.0612342E0,1.0038741E0,1.0573602E0],"tree_param":{"num_deleted":"0","num_feature":"50176","num_nodes":"3","size_leaf_vector":"1"}},{"base_weights":[1.7366835E-4,-2.5064552E-2,2.4490451E-2],"categories":[],"categories_nodes":[],"categories_segments":[],"categories_sizes":[],"default_left":[0,0,0],"id":111,"left_children":[1,-1,-1],"loss_changes":[2.7698405E-2,0E0,0E0],"parents":[2147483647,0,0],"right_children":[2,-1,-1],"split_conditions":[7.764577E-2,-2.5064552E-2,2.4490451E-2],"split_indices":[44783,0,0],"split_type":[0,0,0],"sum_hessian":[2.061234E0,1.0038736E0,1.0573604E0],"tree_param":{"num_deleted":"0","num_feature":"50176","num_nodes":"3","size_leaf_vector":"1"}},{"base_weights":[6.965392E-5,-2.4654046E-2,2.463566E-2],"categories":[],"categories_nodes":[],"categories_segments":[],"categories_sizes":[],"default_left":[0,0,0],"id":112,"left_children":[1,-1,-1],"loss_changes":[2.7203158E-2,0E0,0E0],"parents":[2147483647,0,0],"right_children":[2,-1,-1],"split_conditions":[1.726475E-2,-2.4654046E-2,2.463566E-2],"split_indices":[40764,0,0],"split_type":[0,0,0],"sum_hessian":[2.0309734E0,1.0134499E0,1.0175235E0],"tree_param":{"num_deleted":"0","num_feature":"50176","num_nodes":"3","size_leaf_vector":"1"}},{"base_weights":[-6.983175E-5,2.4654001E-2,-2.4635693E-2],"categories":[],"categories_nodes":[],"categories_segments":[],"categories_sizes":[],"default_left":[0,0,0],"id":113,"left_children":[1,-1,-1],"loss_changes":[2.7203148E-2,0E0,0E0],"parents":[2147483647,0,0],"right_children":[2,-1,-1],"split_conditions":[1.726475E-2,2.4654001E-2,-2.4635693E-2],"split_indices":[40764,0,0],"split_type":[0,0,0],"sum_hessian":[2.0309734E0,1.0134499E0,1.0175235E0],"tree_param":{"num_deleted":"0","num_feature":"50176","num_nodes":"3","size_leaf_vector":"1"}},{"base_weights":[4.3284017E-5,2.3272432E-2,-2.3247542E-2],"categories":[],"categories_nodes":[],"categories_segments":[],"categories_sizes":[],"default_left":[0,0,0],"id":114,"left_children":[1,-1,-1],"loss_changes":[2.4054978E-2,0E0,0E0],"parents":[2147483647,0,0],"right_children":[2,-1,-1],"split_conditions":[5.7211597E-2,2.3272432E-2,-2.3247542E-2],"split_indices":[37979,0,0],"split_type":[0,0,0],"sum_hessian":[2.0015528E0,1.0005437E0,1.0010091E0],"tree_param":{"num_deleted":"0","num_feature":"50176","num_nodes":"3","size_leaf_vector":"1"}},{"base_weights":[-4.3566477E-5,-2.3272483E-2,2.3247486E-2],"categories":[],"categories_nodes":[],"categories_segments":[],"categories_sizes":[],"default_left":[0,0,0],"id":115,"left_children":[1,-1,-1],"loss_changes":[2.4054976E-2,0E0,0E0],"parents":[2147483647,0,0],"right_children":[2,-1,-1],"split_conditions":[5.7211597E-2,-2.3272483E-2,2.3247486E-2],"split_indices":[37979,0,0],"split_type":[0,0,0],"sum_hessian":[2.0015538E0,1.0005451E0,1.0010086E0],"tree_param":{"num_deleted":"0","num_feature":"50176","num_nodes":"3","size_leaf_vector":"1"}},{"base_weights":[3.9618346E-5],"categories":[],"categories_nodes":[],"categories_segments":[],"categories_sizes":[],"default_left":[0],"id":116,"left_children":[-1],"loss_changes":[0E0],"parents":[2147483647],"right_children":[-1],"split_conditions":[1.1885504E-5],"split_indices":[0],"split_type":[0],"sum_hessian":[1.9756258E0],"tree_param":{"num_deleted":"0","num_feature":"50176","num_nodes":"1","size_leaf_vector":"1"}},{"base_weights":[-3.9505863E-5],"categories":[],"categories_nodes":[],"categories_segments":[],"categories_sizes":[],"default_left":[0],"id":117,"left_children":[-1],"loss_changes":[0E0],"parents":[2147483647],"right_children":[-1],"split_conditions":[-1.1851759E-5],"split_indices":[0],"split_type":[0],"sum_hessian":[1.975626E0],"tree_param":{"num_deleted":"0","num_feature":"50176","num_nodes":"1","size_leaf_vector":"1"}},{"base_weights":[3.1716678E-5],"categories":[],"categories_nodes":[],"categories_segments":[],"categories_sizes":[],"default_left":[0],"id":118,"left_children":[-1],"loss_changes":[0E0],"parents":[2147483647],"right_children":[-1],"split_conditions":[9.5150035E-6],"split_indices":[0],"split_type":[0],"sum_hessian":[1.9756259E0],"tree_param":{"num_deleted":"0","num_feature":"50176","num_nodes":"1","size_leaf_vector":"1"}},{"base_weights":[-3.1670046E-5],"categories":[],"categories_nodes":[],"categories_segments":[],"categories_sizes":[],"default_left":[0],"id":119,"left_children":[-1],"loss_changes":[0E0],"parents":[2147483647],"right_children":[-1],"split_conditions":[-9.501015E-6],"split_indices":[0],"split_type":[0],"sum_hessian":[1.9756256E0],"tree_param":{"num_deleted":"0","num_feature":"50176","num_nodes":"1","size_leaf_vector":"1"}},{"base_weights":[2.5387404E-5],"categories":[],"categories_nodes":[],"categories_segments":[],"categories_sizes":[],"default_left":[0],"id":120,"left_children":[-1],"loss_changes":[0E0],"parents":[2147483647],"right_children":[-1],"split_conditions":[7.6162214E-6],"split_indices":[0],"split_type":[0],"sum_hessian":[1.9756258E0],"tree_param":{"num_deleted":"0","num_feature":"50176","num_nodes":"1","size_leaf_vector":"1"}},{"base_weights":[-2.535873E-5],"categories":[],"categories_nodes":[],"categories_segments":[],"categories_sizes":[],"default_left":[0],"id":121,"left_children":[-1],"loss_changes":[0E0],"parents":[2147483647],"right_children":[-1],"split_conditions":[-7.607619E-6],"split_indices":[0],"split_type":[0],"sum_hessian":[1.9756255E0],"tree_param":{"num_deleted":"0","num_feature":"50176","num_nodes":"1","size_leaf_vector":"1"}},{"base_weights":[2.03923E-5],"categories":[],"categories_nodes":[],"categories_segments":[],"categories_sizes":[],"default_left":[0],"id":122,"left_children":[-1],"loss_changes":[0E0],"parents":[2147483647],"right_children":[-1],"split_conditions":[6.11769E-6],"split_indices":[0],"split_type":[0],"sum_hessian":[1.9756261E0],"tree_param":{"num_deleted":"0","num_feature":"50176","num_nodes":"1","size_leaf_vector":"1"}},{"base_weights":[-2.0241678E-5],"categories":[],"categories_nodes":[],"categories_segments":[],"categories_sizes":[],"default_left":[0],"id":123,"left_children":[-1],"loss_changes":[0E0],"parents":[2147483647],"right_children":[-1],"split_conditions":[-6.0725038E-6],"split_indices":[0],"split_type":[0],"sum_hessian":[1.9756258E0],"tree_param":{"num_deleted":"0","num_feature":"50176","num_nodes":"1","size_leaf_vector":"1"}},{"base_weights":[1.6306181E-5],"categories":[],"categories_nodes":[],"categories_segments":[],"categories_sizes":[],"default_left":[0],"id":124,"left_children":[-1],"loss_changes":[0E0],"parents":[2147483647],"right_children":[-1],"split_conditions":[4.8918546E-6],"split_indices":[0],"split_type":[0],"sum_hessian":[1.9756256E0],"tree_param":{"num_deleted":"0","num_feature":"50176","num_nodes":"1","size_leaf_vector":"1"}},{"base_weights":[-1.6226684E-5],"categories":[],"categories_nodes":[],"categories_segments":[],"categories_sizes":[],"default_left":[0],"id":125,"left_children":[-1],"loss_changes":[0E0],"parents":[2147483647],"right_children":[-1],"split_conditions":[-4.8680054E-6],"split_indices":[0],"split_type":[0],"sum_hessian":[1.9756255E0],"tree_param":{"num_deleted":"0","num_feature":"50176","num_nodes":"1","size_leaf_vector":"1"}},{"base_weights":[1.3010581E-5],"categories":[],"categories_nodes":[],"categories_segments":[],"categories_sizes":[],"default_left":[0],"id":126,"left_children":[-1],"loss_changes":[0E0],"parents":[2147483647],"right_children":[-1],"split_conditions":[3.9031743E-6],"split_indices":[0],"split_type":[0],"sum_hessian":[1.9756253E0],"tree_param":{"num_deleted":"0","num_feature":"50176","num_nodes":"1","size_leaf_vector":"1"}},{"base_weights":[-1.3004283E-5],"categories":[],"categories_nodes":[],"categories_segments":[],"categories_sizes":[],"default_left":[0],"id":127,"left_children":[-1],"loss_changes":[0E0],"parents":[2147483647],"right_children":[-1],"split_conditions":[-3.901285E-6],"split_indices":[0],"split_type":[0],"sum_hessian":[1.9756252E0],"tree_param":{"num_deleted":"0","num_feature":"50176","num_nodes":"1","size_leaf_vector":"1"}},{"base_weights":[1.0388169E-5],"categories":[],"categories_nodes":[],"categories_segments":[],"categories_sizes":[],"default_left":[0],"id":128,"left_children":[-1],"loss_changes":[0E0],"parents":[2147483647],"right_children":[-1],"split_conditions":[3.116451E-6],"split_indices":[0],"split_type":[0],"sum_hessian":[1.9756249E0],"tree_param":{"num_deleted":"0","num_feature":"50176","num_nodes":"1","size_leaf_vector":"1"}},{"base_weights":[-1.0384724E-5],"categories":[],"categories_nodes":[],"categories_segments":[],"categories_sizes":[],"default_left":[0],"id":129,"left_children":[-1],"loss_changes":[0E0],"parents":[2147483647],"right_children":[-1],"split_conditions":[-3.1154175E-6],"split_indices":[0],"split_type":[0],"sum_hessian":[1.9756255E0],"tree_param":{"num_deleted":"0","num_feature":"50176","num_nodes":"1",